2224 64
217 0.5083597 0.40743363 0.7144756 -1.242985 -0.21747702 -0.71063554 0.0033000386 0.21833943 -0.024445496 0.1412004 0.19078042 -0.6510629 0.047917735 0.18569532 -0.14672846 0.23465298 -0.17165086 -0.010114967 0.46695724 -0.4695665 0.49020863 -0.3120224 -0.4933322 -0.531148 0.33251104 0.04817923 -0.096544705 0.17356817 0.30861488 0.4226201 0.6529658 0.02298555 0.18945237 0.20705459 0.09529254 -0.6251499 1.4002507 0.23424207 -0.06831701 -0.08921485 -0.7913955 0.93784755 0.011391341 0.3575898 -0.17631547 0.91577774 -0.27860397 0.14630884 0.44492218 -0.22435395 -0.025647271 -0.8739238 0.27347776 0.15760683 0.5409228 -0.46230155 -0.43015736 0.41254398 1.0521789 -0.45270938 -0.27215603 -0.29364398 0.20681877 0.11128987
650 0.22670893 0.021896597 -0.14305055 -0.6591856 -0.28240132 -0.72326195 0.87559855 -0.019989466 -0.25544065 0.002541991 0.4526776 0.22356045 -0.34420204 -0.3217244 0.09920249 0.3411418 -0.046453815 -0.61174136 0.35599294 -0.045524318 -0.14020753 -0.37718803 -0.448754 0.57248694 0.55926317 0.48128363 -0.001663725 -0.81049895 0.90588623 -0.26657137 0.395417 0.41740033 -0.2514795 -0.33994073 0.41174755 -0.3186882 1.3990219 -0.7920246 -0.42079037 -0.07387151 0.31670004 -0.0027042504 0.35441098 -0.35520557 0.97305256 0.85519177 -0.07643147 -0.56766975 0.0855634 -0.28206378 -0.2535358 -0.23987071 -0.27371937 0.07801195 -0.73563784 -0.5490267 0.010119519 0.20942914 0.83111745 0.87381804 0.11459695 0.23688212 -0.15201874 0.13673826
377 0.19525497 0.582358 0.1646906 -0.80686563 0.1638307 -0.82446027 0.08181562 -0.004190282 0.019602682 -0.009482533 0.020968368 -1.0722352 -0.024758099 0.54624796 0.20068368 -0.44374487 -0.28477743 0.14077087 0.66574866 -0.37936005 -0.12679835 -0.21449491 -0.46359584 -0.4396387 0.6825049 0.057886153 0.3145444 0.042799152 0.20273095 0.05954871 -0.18994534 -0.040640164 -0.015726177 -0.64512134 0.3891342 -0.038796216 0.5841996 0.46671537 -0.060831405 0.7076351 -0.8748174 0.39983568 0.471975 0.24464563 0.19644547 0.3765731 -0.10980794 -0.28897795 -0.48808235 -0.30862182 0.08836462 -0.36854544 0.31038654 0.32299367 0.5794032 -0.16015813 -0.1328743 0.26682335 0.7134406 -0.30104107 -0.09630762 0.53954595 0.019015586 -0.36512503
57 -0.50423735 -0.67866814 0.20260465 -0.14068958 0.23986839 -0.877777 0.29966995 0.97337705 -0.23170605 -0.3246933 0.43588975 -0.09530561 0.14142132 -0.0023106113 -0.5039594 -0.27441156 0.5387293 -0.71818703 -0.0530409 0.18239361 0.992613 -0.7018909 -0.3233887 -0.021752223 1.166198 0.16409606 0.50548154 0.090472735 0.50490886 0.60295963 1.0633186 -0.15175422 -0.19034204 -0.9550626 -0.05956573 -0.088378474 0.42021888 -0.02933926 0.17740028 -0.13338207 0.70269185 0.03376747 0.3126159 -0.12535183 0.45944217 0.46329975 -0.16727343 -0.12572712 -0.2098795 -0.68634444 0.53610086 -0.18624789 0.37779298 0.7110406 0.35499093 -0.06547165 -0.026778175 0.122647405 0.5574864 -0.8694351 0.579833 0.37024015 -0.07416845 0.3000837
179 -1.1390508 1.0928153 -0.35124356 -0.8044518 -0.45978615 0.045561112 -0.4031456 0.310544 0.042318653 0.34162337 0.629457 0.50134003 0.2920677 -0.17142734 0.13724607 -0.058816936 -0.5260144 -0.15444693 -0.033137597 -0.715201 0.7290031 0.26520285 0.06640208 0.3156519 0.52123564 -0.43144736 0.037522484 0.00835343 0.66184694 0.006591916 1.1291422 -0.21529572 0.24287269 -0.6752278 0.45113078 0.29547217 0.12606601 0.48900118 -0.073395856 -0.28316787 -0.36658722 -0.0580528 0.07914583 -0.890859 0.39353886 0.9068055 -0.75415975 -0.5858466 0.12105479 0.13443199 -0.16637464 -0.24840112 0.4555956 -0.14012669 0.07233856 -0.3494444 -0.28866446 0.3062716 -0.09158797 0.13374557 0.053912617 0.33100766 -0.13782845 0.075615056
120 -0.59849095 0.7727213 -0.3457853 0.018217951 0.35266912 -1.2435383 -0.11075215 0.15078951 -0.2793262 0.65001965 0.450929 -0.03002136 0.5323419 0.0141186295 -0.33321735 0.8390663 -0.06996792 -0.30929688 0.81328356 0.2622863 0.12736118 -0.636034 0.26364857 0.5106209 -0.08151512 0.8423978 -0.254736 -0.5694871 0.16195709 0.008405651 0.2359329 0.14738292 0.55047375 -0.90038246 0.47474286 -0.41266766 0.335072 -0.47141153 -0.19675271 -0.34779778 -0.52831995 0.22634813 0.4663649 -0.6493122 -0.32513565 0.8487649 0.08677796 -0.42156985 0.48304322 0.14568925 1.3265922 0.18603651 -0.26155284 -0.032834608 0.16660893 -1.0061656 -0.1667568 0.46248904 -0.09553295 -1.2878908 -0.63444304 -0.35496312 -0.29564098 -0.5634746
325 0.25531274 0.28047574 -0.39580095 -1.0306386 -0.13373022 -0.8830117 0.46262473 -0.28888655 -0.39515322 -0.0702273 0.6617661 -0.761582 0.40219918 0.15640654 0.5239659 -0.028137593 -0.29704794 0.14308165 0.8317276 -0.08828218 0.054260246 0.09865263 0.3225776 -0.9916231 0.3940429 0.17019966 0.26088136 -0.30894825 0.83925754 -0.15410885 0.028243316 -0.5383173 0.26380137 -0.90858513 0.38024676 -0.3078621 0.3732339 0.08098216 -0.35363486 0.48959553 -0.67690873 0.19598679 -0.46728736 0.2948488 0.32419103 0.46577018 0.4163856 0.21604435 -0.56728625 0.120322205 0.08146966 -0.4651967 0.24124958 0.5887938 0.64738494 -0.20770372 -0.31333628 0.3059738 0.882279 -0.39106894 0.3239195 0.18886848 -0.2858611 0.065025926
1343 -0.02045148 -0.06231731 -0.87886184 0.11901626 0.1207516 -1.5451013 0.46692562 -0.27887645 0.32258707 0.67358965 0.31740478 -0.8999463 0.22373895 -0.41656843 0.44014013 -0.46888426 1.0601 -1.1989989 0.38345343 0.28681013 0.6324812 0.34452236 -0.3002352 0.34983376 0.063571304 0.12446679 -0.323102 0.4081228 0.9395537 0.1355312 0.15728064 0.26643008 0.26874763 -1.3489941 0.20020914 0.40513462 0.98040444 -0.23923938 -0.6060303 -0.10909469 -0.30046913 -0.15952581 0.30047476 -0.7365829 0.9790406 -0.08455839 -0.71784925 0.20605913 0.64065576 0.25425744 -0.6927824 0.0006120695 -0.035002787 -0.22753546 0.64984715 -0.5700544 -0.2996919 -0.12645152 0.6309939 -0.62788475 -0.5276318 0.1232707 0.18841396 0.30614322
54 -0.17894496 -0.45275033 -0.5608436 -0.16483822 -0.0068340055 -0.47601914 -0.1689887 0.21531609 -0.123395994 -0.36041808 0.20679834 -0.21630538 0.4644715 0.10387211 0.043623537 -0.45313635 0.54741216 -0.55839336 0.092429966 0.26573724 0.15662259 -0.7824904 -0.61063516 -0.009335536 0.8179129 0.21300934 0.37294158 0.047668394 0.1602422 0.15514001 0.82971925 0.017592529 0.1854665 -1.2045585 0.13123988 0.0058731665 0.8302856 0.13288735 -0.47956142 0.90324724 0.25422373 0.08479992 0.12243665 -0.2870759 0.3005647 0.73560834 0.4095311 -0.739205 -0.9786339 -0.32969368 0.2863451 0.33972198 -0.113716 0.66780645 0.9087835 0.27027345 -0.2485524 0.9076759 0.35452265 -0.5934478 0.33672297 0.32712674 -0.14234087 -0.11568468
1409 -0.40661457 -0.5933286 -0.58449507 -0.48326805 0.3253011 -0.4545201 0.028430598 0.038872704 -0.14735219 -0.24402367 -0.08343493 -0.65468085 0.57218033 0.09850725 -0.09056124 -0.12756985 0.29379255 -0.24362175 0.18957278 0.45042312 -0.25858033 -0.30261534 -0.5866617 0.12867501 0.43714443 0.1721153 0.29867405 0.02829236 -0.022254648 0.21427144 0.7307064 0.3804002 -0.04430777 -0.66162616 0.611972 -0.058050107 0.42244238 0.53534126 -0.41962704 0.78182024 -0.03549138 0.19310613 0.18897314 -0.112969145 0.74966604 0.7842727 -0.029987875 -1.0764414 -0.86327213 -0.06394115 0.1939198 0.4002407 -0.39611748 0.7065461 1.1076994 0.29672933 -0.060786936 0.25691572 0.82465386 -0.84962654 0.31679443 0.47877973 -0.2856377 0.1968953
168 -0.40440166 0.77792704 0.40478775 -0.27338073 -0.902305 -1.343283 0.86323744 -0.30046612 -0.11275236 0.7688592 0.80897206 -0.018549742 1.0502421 -0.0094377035 -0.30757114 0.24048355 0.24295366 -1.1284845 0.07067075 0.5845408 0.56414074 -0.16978991 0.15351798 0.050116636 0.52847904 0.5055797 -0.3976666 -0.6157647 -0.3842375 0.009031855 0.11174256 -0.15758987 0.29517424 -0.9422532 0.20119846 -0.20926975 0.29958868 0.14355718 -0.15457189 -0.44976422 -0.29108617 0.39980823 0.30402914 -0.71165293 -0.096324794 0.27271658 0.0003994252 -0.6296087 0.30143794 0.4114366 0.68533605 -0.16011637 0.4193289 0.6417028 0.5031863 -1.0886518 -0.22168607 0.6807862 -0.61986667 -0.8285071 0.54561234 -0.23890635 0.49932814 -1.0539136
1785 0.50660145 0.40425178 0.5657513 -0.31920204 -0.66351885 -0.72969997 1.2564824 -0.10149887 0.1282499 0.18104003 0.76336306 -0.08087278 -0.30273622 0.099915266 -0.10667874 0.31306124 -0.097724736 -0.455621 0.57571834 0.16432184 0.003191755 -0.63323057 0.40197015 0.47231954 0.39201483 0.4275108 0.24911052 -0.92816675 0.59886074 -0.23745303 0.6466946 -0.06565654 -0.34148955 -0.60558283 0.2629506 -0.48990077 0.8525762 -0.7848819 -0.41272408 0.05738587 0.2369923 -0.51543385 -0.23068053 -0.5532207 0.97011167 1.2873665 -0.057874557 -0.5466081 0.35362676 -0.81897 -0.45793334 -0.7448955 -0.13860856 0.11590024 -0.13192703 -0.5321771 -0.04820166 -0.121256046 0.6407744 0.5008646 -0.15381809 0.1904464 -0.26526195 -0.04441778
29 0.7440388 0.25301677 0.3674046 -0.99487936 -0.98044974 -0.84387004 -0.33857128 -0.1858342 0.19103117 0.13389707 0.092017114 -0.8078991 -0.24465024 0.31049213 0.50322104 0.19020593 0.067015946 -0.78762555 0.5456998 -0.25786355 0.649365 -0.46372136 -0.44747695 -0.31898892 0.15199517 0.13577452 -0.047117297 0.5351803 0.6745271 -0.091552675 0.5236762 -0.63936657 -0.38463816 -0.4479329 0.051588524 -0.33407712 0.39636427 0.37341493 -0.9022113 -1.0240015 -0.64277655 0.28288558 0.368672 0.075192034 0.46048388 1.0923223 -0.9576193 0.54724187 0.26661465 -0.42832702 0.67546934 0.5011061 -0.68574196 0.4690124 0.5248239 -0.9394244 0.21955697 0.70901483 0.23281042 -0.49938637 -0.59229714 0.15052469 0.21849376 -0.19196837
729 0.078013115 0.10824548 0.36628473 0.49170715 0.5059304 -0.61571276 0.10970265 0.2869078 -0.61231506 0.46785665 0.5569384 -1.0739585 0.26533887 -0.60062194 0.40281022 -0.3830488 0.99284285 -0.91584545 0.15117319 0.31237495 0.66085756 -0.34741703 0.3829926 -0.26157388 1.1539079 0.29936692 -0.038446024 0.3263747 0.87182015 0.18319796 0.6108652 0.31951895 0.59459615 -1.2788495 0.21125661 0.10741568 0.41166222 -0.10042865 -0.52143276 -0.6315012 -0.37073436 -0.14049116 0.40380558 -0.42395535 0.47663578 0.17713907 -0.06740491 -0.96676815 0.5328353 0.45531365 -0.1546601 -0.07892036 -0.25451148 0.7278488 0.23901632 -1.0830891 -0.36668074 -0.18762729 0.7642714 -0.43827587 -0.71819776 0.085723 0.02251664 0.51273376
1770 -0.70933294 0.10140842 0.4123755 -0.65542656 -0.96949995 -0.56829727 0.9361082 -0.08990895 -0.6885378 -0.1689352 0.65033984 -0.76607126 0.081235774 -0.09853982 0.09502971 -0.38084492 -0.7045818 -0.6551729 0.5493484 -0.050172262 -0.09527086 -0.5808027 0.07290778 -0.5059711 0.8187648 0.20631501 0.28592366 0.32450235 -0.4278343 -0.26794752 0.27931324 -0.03675909 1.0730673 -0.75411236 0.871612 0.417611 0.05465034 0.2198813 0.16311002 0.23372266 -0.63473815 0.19766247 0.9073229 -0.2798995 0.3818272 0.25605035 -0.028521288 0.17142689 -0.0830029 -0.5142205 -0.24785745 -0.08923206 -0.22249985 -0.54991513 0.19934441 -0.7006665 0.15979733 0.98583734 0.57472366 -0.020215435 0.11792586 0.2995994 -0.736276 -0.08393364
1682 0.55907214 -0.02002129 0.13696249 -0.30767626 -0.9309429 -0.73886526 1.0355403 0.054845702 0.15997545 0.074776635 0.38336834 0.10103601 -0.08702119 0.27757788 -0.034969803 0.35692263 0.072026245 -0.11869746 0.41021013 0.24825676 0.5284094 -0.7071384 0.3451034 0.36868057 0.018426117 0.47935912 0.54587615 -0.7630855 0.5489297 -0.7145819 0.7189635 -0.4814976 -0.08687094 -0.58251953 0.42417932 -0.58102846 1.156012 -0.82577175 -0.46325105 -0.09454543 0.242657 -0.45981792 -0.24660696 -0.54028994 1.0418911 1.1013584 -0.03617879 -0.44765204 0.30956048 -0.5721665 -0.48485237 -0.30417877 0.1148386 0.07368374 -0.22634013 -0.7185333 0.0041925157 -0.02403351 0.6673363 0.5080453 -0.13864969 0.33980572 -0.22412348 0.12492976
560 -0.5648357 -0.6428969 -0.038936116 -0.33679098 -0.11637136 -0.64330345 0.03381268 0.1641829 -0.35491207 -0.7589302 0.27277094 0.020983128 0.0358902 0.034538962 -0.56689346 -0.5850445 0.22593099 -0.38845056 0.30741286 0.34191138 0.8011292 -0.7003616 -0.5065751 0.27032912 0.6669373 0.020534836 -0.032366592 -0.046033576 0.44773278 0.78594154 1.329438 -0.14503491 0.10418796 -1.2346033 0.2148704 -0.47495854 0.22267717 -0.48074198 -0.35131127 0.16758887 0.40638462 0.2753704 0.4407054 0.10091491 0.5238058 0.2630213 0.18083982 -0.22847672 -0.08949391 -0.91737205 0.53896433 0.59331036 0.18317454 0.4720487 0.5097533 -0.16319345 -0.6553438 0.4579218 0.9206193 -0.39766568 0.46481636 0.4711471 0.2302686 -0.06271418
1656 0.13277406 0.5746038 0.3198763 -1.0379889 -0.06931382 -0.9772856 0.9234402 -0.29976922 -0.6550996 0.005871627 0.6292111 -1.2634387 -0.051241044 0.2918099 -0.012542622 -0.10021286 -0.42212984 -0.28170198 0.24235398 -0.15310688 0.12359153 -0.0043272623 0.2754786 -0.3512312 0.56276214 -0.2625926 0.34012282 0.2778336 0.03989755 0.021029057 -0.04230509 0.2405947 0.53205806 -0.9782758 0.75214046 -0.3411112 0.5372908 0.6347347 -0.43025953 0.4607782 -1.0111754 -0.35722896 0.22708051 -0.04307498 0.18184333 -0.021391839 0.15971063 -0.04227293 -0.49897432 -0.59365267 0.14818807 -0.60131073 0.0319702 -0.73448795 0.5062771 -0.28286248 0.19863388 0.24635532 0.45425346 -0.5495155 -0.3117621 -0.00023151968 -1.0212847 -0.10992072
94 -0.102911636 -0.32164603 0.011904355 -0.4960464 -0.6625128 -0.84849095 0.23916616 -0.44177595 -0.2917552 -0.6028855 0.21380258 -0.15602833 0.068937354 -0.3864402 0.35581 -0.0907173 -0.451425 -0.5360975 0.28771496 0.1558543 0.08164199 -0.29503006 -0.066851206 -0.27672568 0.47341228 -0.3906765 -0.15870251 -0.23860402 -0.53708345 -0.042776667 0.14050463 -0.64711314 0.4743352 -1.2628996 0.4192107 0.20208521 0.19986144 0.3636325 0.5572218 0.56307805 -0.029908026 0.32335144 0.6958405 0.10713645 0.3307755 0.3607321 0.1405351 0.25023884 -0.63653666 -0.5630697 0.23256017 -0.92832303 -0.65107006 -0.08446911 0.34036252 -0.47012028 -0.0025560595 0.67817557 0.6676307 -0.62086475 -0.046152446 0.36233687 -0.48428896 0.30785146
181 -0.66294587 0.41504204 -0.6545102 -1.010964 -0.7004183 -0.13914087 -0.011904952 0.1801579 -0.66508543 -0.03522193 0.19955297 0.32623017 0.31279132 -0.814481 0.85835207 0.34554246 -0.16377082 -0.4895518 0.09367853 -0.7498389 1.4511513 -0.18066883 0.1469354 0.034747325 0.8548931 -0.2519067 -0.27777898 -0.3445853 0.47464377 0.7050308 0.35018554 0.09864063 -0.19504741 -0.8943271 0.5071753 0.0016889615 0.31347898 0.23519342 -0.17932561 -0.4749969 -0.6808267 -0.098784424 -0.9701277 -0.9337191 0.03497862 0.8506124 -0.39260873 -1.001253 0.23672248 -0.6775399 0.39288184 0.013467619 -0.3000548 -0.29215467 0.75135493 -0.62176394 -0.15873186 -0.18703467 -0.06020148 0.39025068 -0.20869006 0.28273106 0.031582788 -0.10540058
37 -0.58862275 -0.5461526 -0.3263663 -0.36273733 0.19151941 -0.78778166 0.11262251 0.3734324 -0.3462795 -0.8308248 0.5426605 -0.15855113 0.29746 0.16095467 -0.26988232 -0.3492913 0.2724019 -0.30277088 -0.03403171 0.067923576 0.17720614 -0.7189052 -0.12207338 -0.2886788 0.695368 -0.1652164 0.36264005 0.30418685 0.52191347 0.49994886 1.0957049 -0.19856775 0.3638305 -1.0703629 0.40591836 -0.11043835 0.4756277 -0.3442518 -0.63046473 0.15820211 0.5345024 0.33201486 0.4511753 -0.11964851 0.3483157 0.096498385 -0.04682859 -0.32168746 -0.08040983 -0.8553017 0.56908405 0.2691342 0.59370154 0.98534477 0.29594567 0.04990643 -0.5871378 0.48392352 0.54486305 -0.56531453 0.48174125 0.311093 0.5716125 -0.1467423
7 -0.2431152 0.7213041 0.005237882 -0.93163776 -0.16991374 -0.46890804 0.23791316 -0.31149688 1.1020776 0.32381022 1.3511658 -0.08159483 0.05822183 -0.5727107 -0.087035045 0.08650228 0.28723124 -0.37946418 -0.019574527 0.35587835 0.5814227 0.6372091 -0.14479528 -1.1248367 0.40036118 -0.1394597 0.49108413 -0.90179163 0.28252816 0.033474542 1.183315 0.5549528 0.059635893 0.29829916 0.55591094 -0.09517013 -0.08983605 -0.2903157 0.065719426 -0.1473405 -0.73831743 0.6719705 -0.07461129 -0.4750058 0.08809291 0.50157946 -1.4411478 -0.8179192 0.026001066 -0.5627209 0.01293295 -0.0011386762 -0.5829197 0.050216474 0.21642822 -0.112759575 -0.42994985 0.40307155 0.7162921 -0.72929806 0.043033138 -0.15427463 0.14450331 -0.04159919
203 0.44022757 0.644078 0.20570563 -0.16669661 0.2727792 -1.6778592 0.8414541 0.17397125 0.3742919 -0.32184586 0.6616915 0.49601194 0.41269186 -0.61353767 0.23839602 -0.27628714 -0.32880965 -0.2280668 -0.30205077 0.14077461 -0.19592637 -0.29864737 0.08787154 0.597511 -0.22534908 0.5856885 0.22998917 -0.37642968 0.6868813 0.020394191 0.14173873 0.14756699 -0.4834071 -0.8342781 0.7960291 -0.603164 0.2001936 0.46391907 -0.19406052 -0.5874393 -0.5599319 0.56051487 0.32154876 -0.55389583 0.50358516 0.13816506 -0.20496532 -0.17158602 -0.30792546 -0.19999705 0.8832516 0.09951425 -0.32788065 -0.15734877 -0.112986684 -0.20727864 -0.5228959 0.024620885 0.5114724 0.55562526 0.113341175 0.3257095 -0.40200105 0.7439202
789 0.051972758 0.38042623 0.6243714 -1.0481027 -0.774125 -0.47712964 0.30299813 0.36048782 0.18582188 -0.23957177 0.19079456 -0.2716028 0.030942237 -0.19999813 1.0449053 0.21181563 -0.3351909 -0.26449233 0.16345233 1.2820164 0.49062914 -0.37166965 -0.5203154 -0.5442521 -0.057034727 -0.0010293069 -0.81136894 -0.27040207 -0.065786794 0.25231734 0.5952002 -0.029198395 1.1160412 -1.5594308 0.0030042427 0.03863999 0.6814813 0.08066386 0.30698958 -0.3385365 0.2551246 0.76776916 0.42181695 -0.32454404 1.2505122 0.62807035 -0.591482 0.3154755 0.24783663 0.13617198 -0.13954416 0.101932 -0.8157528 -0.11124588 0.25762802 -0.7946479 -0.5728601 0.29406112 0.40474132 -0.40648952 0.22419909 0.7102097 -0.90617085 -0.2078615
119 -0.84146905 0.11899485 0.26042634 0.3681655 -0.20445481 -1.1571156 -0.033330843 -0.1549244 -0.17528231 0.054650962 0.4116006 -0.11952476 1.0390055 -0.5022318 -0.34601116 0.23035806 -0.1118549 -1.2019612 -0.06620581 0.05329265 0.212124 0.26109338 -0.3803378 -0.22658299 0.28038055 0.72406137 0.3174725 -0.76613206 0.22495143 -0.3696586 0.16980211 0.18157066 -0.04241481 -0.81773084 0.10213138 -0.5561469 0.6237687 -0.05995252 0.44703948 0.15971118 0.1805363 0.007355623 0.2837692 -0.20329124 0.31832212 0.48146585 0.038246524 -0.13792591 0.42933533 -0.4384999 1.363402 0.16186213 0.5900347 0.07609838 -0.074037105 -1.1597877 -0.31675726 0.4466686 -0.07282972 -0.9284288 -0.25224018 0.103680305 0.5216036 0.34313565
1616 0.4966849 0.66472304 -0.5558847 -0.8120879 -0.36090824 -0.13882253 0.44977653 -0.28921276 0.005724953 -0.084025845 0.92748594 -0.65052074 0.31028986 0.59919095 0.26463988 0.04849061 -0.20362033 0.15970182 0.5357481 -0.11678032 0.40225282 0.1321695 0.32459205 -0.14793122 0.4335965 0.16789387 0.5052764 0.030866232 0.03596597 0.16571864 0.024666065 -0.17485312 0.4404469 -1.1559472 0.52002066 -0.27660707 0.9257318 0.6649023 -0.6867345 0.8916116 -0.9931316 -0.020254863 0.22171243 0.10657576 0.21528272 0.57254153 -0.08063667 0.071281634 -0.29785255 0.24985445 0.42898974 -0.42108968 0.26039523 0.6064702 0.012193612 -0.3445186 -0.39410737 0.18978724 1.2253441 -0.3420696 0.25092882 -0.027228823 -0.371405 -0.6702059
0 0.21448697 -0.38503838 0.48897302 -0.9544214 -0.5205792 -0.7451725 0.15348937 0.3001727 0.3043139 -0.50275034 0.24118209 0.016983194 -0.12259609 0.025310718 0.42682594 0.29873338 -0.8736855 -0.6776231 0.2766858 0.22128752 0.102974154 -0.46163285 -0.17409916 -0.49937147 0.5817042 -0.252744 -0.41333017 -0.05527688 -0.33583382 0.05903856 -0.05142064 -0.06334563 0.72682697 -1.0786635 0.42867988 0.38385698 0.38680184 0.22822237 0.20185342 0.006381206 0.053716894 0.42152232 0.4164798 -0.23159876 0.8461928 0.29158175 -0.055909913 0.7013993 -0.21599394 -0.29987735 0.34005186 -0.27354562 -0.8811462 -0.114881694 0.7043253 -0.31406152 -0.46265742 0.61473846 0.5237647 -0.50063497 0.2924883 0.87705606 -0.91343457 0.03364213
1008 -0.8079655 0.05666518 0.2044441 0.8114671 0.11296202 -1.3822044 0.24270973 0.0750232 -0.4242154 0.4274237 -0.36531857 0.05132155 0.4174765 -0.35600916 0.20106685 -0.056877233 0.51036614 -1.2881241 -0.052783284 0.3450257 0.35852316 -0.05223635 -0.48842394 -0.6228155 0.40843603 0.52004635 0.39841574 -0.58802575 0.43452007 -0.038765278 0.31989837 0.06835555 -0.43250364 -1.171699 0.97858804 -0.14625506 0.06164504 -0.098222636 0.35415015 -0.7989221 -0.22660924 0.023533713 0.25565854 -0.5328949 0.45061034 0.10849316 0.1600461 0.27384037 0.83472025 -0.73512363 0.5262288 -0.56941414 0.15405335 0.3382911 0.43396682 -1.0591565 -0.6658318 -0.012887452 0.27343285 -0.77954 -0.076156124 -0.24337177 0.64340055 -0.026607253
61 -0.16139208 -0.48117685 0.033236604 0.34376875 0.10002469 -1.1433501 0.39521906 0.10835242 -0.5142344 0.3834546 0.6835724 -0.7507784 0.5243061 -0.79580486 0.250277 -0.47007716 1.362854 -0.71522886 0.21563508 -0.09481679 0.3520515 -0.36387733 0.266839 0.026398474 0.58082956 -0.10234593 -0.4563522 1.0072355 0.88504714 0.286309 0.11331399 0.093311645 0.64723295 -1.1682377 0.11027995 -0.13130058 0.44878408 -0.6514771 -0.5627077 -0.45436668 0.025719408 -0.09108815 0.29807895 -0.60086316 0.36882612 0.38161057 -0.5593803 -0.6250462 0.71312106 0.60313165 -0.09474002 -0.40275458 -0.45395976 0.44347513 0.4819045 -0.85172296 -0.41577533 -0.09066104 0.83274525 -0.36716807 -0.77786976 -0.10624572 -0.27481973 0.23826163
423 0.038647998 0.66771626 0.6710184 -1.2958213 -0.32474133 -0.27455136 -0.36411837 0.059493676 0.18726979 -0.730961 0.64727813 0.31739086 -0.27574372 -0.27811345 0.8936421 0.04307543 0.15216264 -0.9167387 0.8060165 1.3449318 0.5366027 -0.44563922 0.45018762 0.08473815 0.16963919 0.25440788 0.063259214 -0.78724945 -0.018026926 0.2982121 0.09332085 -0.12184435 -0.117726415 -1.1537411 0.29476032 0.33448583 1.2463104 0.23820122 -0.03882886 -0.38180926 0.2115471 0.443263 0.6527389 -0.833413 -0.09737667 -0.063213386 -0.7699791 -0.35179463 0.33260003 0.23386002 -0.21533273 -0.1632079 -0.34897166 -0.054997165 0.35011187 0.15374607 -0.85290843 0.6177888 0.5819728 -0.42803535 0.050303284 0.08823683 -0.15912856 0.65622514
459 -0.012331492 1.3601774 0.5342144 -0.49214387 -0.019265188 -0.6552736 0.026807295 -0.28966886 0.41189924 0.29861182 0.2108625 0.25017858 0.02709012 0.2973156 -0.39591318 0.18901631 0.7103656 -0.14861263 0.26336044 -0.053726684 0.80228084 0.18392387 -0.8146049 -0.09079172 0.8943087 -0.2725199 0.16839316 0.1985013 0.717489 -0.22057116 0.97861254 -0.28243428 0.008574027 -1.0733689 0.13609427 -0.27848232 0.52624345 0.0108072935 -0.034790684 0.7375291 -0.5450033 0.95549417 0.28302407 -0.20113064 -0.24505377 -0.08311609 -1.3495188 -0.2742708 -0.022217572 -0.10206467 -0.01761295 0.034406077 0.48010078 -0.39550686 0.40530452 -0.5994007 0.19533148 0.19241475 0.24971424 -0.019499445 -0.39897886 0.21965037 -0.2358927 0.14994566
1254 -0.23267768 0.46096095 -0.4121941 0.18015221 -0.10019454 -1.2038114 0.34931406 -0.16058347 0.02042637 0.5520195 0.7146347 -0.5453602 0.3001698 -0.46167004 -0.5666165 0.009884209 0.60546285 -1.1164447 0.3779705 0.08925815 0.32729483 -0.05675095 -0.103530645 -0.03005095 0.28381655 0.42144775 -0.14877865 0.70439893 0.62659514 -0.085129485 -0.028668247 0.36309865 0.04533704 -1.37208 0.13823363 0.0460431 0.44037896 -0.11139066 -0.17746101 -0.22278403 -0.57160175 -0.24829046 0.19647609 -0.68579614 0.9663736 -0.0058807833 -0.3546525 -0.08736133 1.1377608 0.06996374 -0.12976022 -1.0483766 -0.51438445 0.3788607 0.64928305 -0.69994307 -1.0662783 0.13988093 0.19855988 -0.74169016 -0.40235078 0.050174687 0.5572124 0.16887297
296 0.058887366 0.57938594 -0.17000782 -0.7604758 -0.28637806 -1.4475621 1.4552503 -0.2893745 0.248884 0.24871738 -0.292077 0.271816 -0.037938148 -0.3711562 0.254868 0.2465609 0.08127461 -0.21582034 -0.4422534 -0.3988893 -0.58495754 0.06794973 -0.24425869 -0.27954617 -0.19843176 0.05714933 0.7228556 -0.6543159 -0.06271383 -0.108138554 0.40176308 0.49942002 0.06971792 -0.8549416 0.32715335 0.6877817 1.206791 -0.77261 -0.4684953 -0.46098337 0.47519678 -0.18770309 0.56225926 -0.49421787 0.24286495 0.9724006 -0.22955321 -0.8243367 0.4127899 -0.37699348 -0.21735314 0.05876116 0.008089921 0.31778494 -0.1182602 -0.79489 -0.3317561 0.3409099 1.210655 0.35066852 0.25776502 0.59676 -0.53016376 0.69098395
1768 -0.9563766 0.114024706 0.8677428 -0.7009965 -0.6280659 -0.69563735 1.0889132 -0.48293266 -0.68045384 -0.13972516 0.75694406 -0.3681635 0.046061143 0.014057106 0.23757008 -0.0783433 -0.5567408 -0.4239549 0.4553818 0.12135486 -0.22602461 -0.43014795 0.2688181 -0.044465058 0.8830922 0.14860925 -0.26837304 0.23290363 -0.22186728 -0.12264449 0.30205765 0.2635089 0.97244924 -0.9887734 0.693501 0.14143726 0.59898263 0.461296 -0.5729072 0.48769805 -0.5313938 0.024389138 0.975682 -0.23109788 0.42035925 0.095382966 0.33507723 0.161973 -0.46900275 -0.6170768 -0.051707026 -0.18557261 -0.16099015 -0.38225132 0.59256524 -0.5406136 0.44631156 0.49855676 0.72860014 -0.10124147 -0.31514972 -0.11250744 -1.0040147 -0.04112845
905 0.27949476 0.8207443 0.6700292 -0.9841911 -0.4645743 -0.8489736 0.41291463 -0.03964206 -0.6832927 0.22699985 0.2548985 -0.2740018 0.61670524 -0.34040982 0.37194985 0.30256552 0.07868086 -0.61294323 -0.21165504 1.1652579 0.20671439 0.27021122 0.07965264 0.4933883 0.42257395 -0.6208002 0.16752207 -0.29142758 1.466713 -0.29286477 0.8461327 0.3200194 0.6810616 -0.90802264 0.31117 0.97289336 1.1606437 -0.5105866 -0.18691443 -0.7767818 -0.14842175 0.051871866 0.7494887 -0.4602341 -0.6550527 -0.13099487 0.11389273 -1.3500851 -0.17180325 -0.27927047 0.73246884 0.108189404 -0.34299666 -0.15853928 0.77134514 -0.19504143 -0.15766875 0.7860688 0.64763373 0.18774073 0.45442265 0.22543755 0.17902881 -0.4782632
329 -0.5759039 0.47739923 0.121312134 -0.6578188 -0.5067659 -0.463414 -0.28552845 -0.27809057 0.39001924 0.48151362 0.52094793 0.39646915 -0.1716138 0.23115678 -0.007925405 -0.10180119 0.20684244 -0.50237715 -0.65060794 0.17787513 0.7827738 -0.09751803 -0.6117768 -0.25168407 0.31697583 0.19014734 0.2213846 -0.08857135 0.7193402 -0.051653877 0.5710271 -0.22121376 1.3519237 -0.100258455 0.26805592 -0.36686966 0.71562004 0.34727696 -0.00651102 -0.17711253 -1.0392864 0.65163016 0.28867432 -0.607315 -0.64804655 1.1435 -0.72487086 -0.05907995 -0.29463926 -0.08769061 -0.29308566 -0.10200036 0.6424735 0.37265235 -0.018272605 -0.7223851 0.79818773 0.22375555 0.3196105 0.32085115 -0.24476925 0.25702983 0.41779292 0.13183787
293 -0.20409507 -0.28428242 -0.057510015 -0.7686776 0.012248861 -0.5336472 1.4370074 0.52850264 -0.108956896 -0.28055722 0.720339 0.70367974 0.4081696 0.28082043 0.59955895 0.27415866 0.14614551 -0.65663004 0.15108903 0.27109998 0.04455489 -0.9065255 -0.55215925 -0.011033553 0.3415573 0.5909702 0.6396383 0.030950243 0.2671612 0.41030073 0.5742037 0.81161773 -0.44167006 -0.90031415 1.2152034 -0.6011515 0.5468584 -0.07514235 -0.16801439 -0.8481235 -0.49626845 0.78337467 -0.25800505 -0.34294665 0.2978406 0.1918114 -0.349787 -0.37236917 -0.014675857 -0.06823317 0.44591492 -0.3136619 -0.17713422 0.2066554 -0.4400096 -1.0192871 -0.08250274 -0.12795068 0.15470955 0.88662934 0.17255512 -0.3520399 -0.1409701 0.23143823
465 0.28872037 0.37909776 0.4527661 -0.61145 -0.2547259 -0.30544782 0.4942411 0.49885923 0.23796146 -0.7511558 0.081541955 0.78175443 0.2581475 -0.22157994 0.21762437 0.52982014 -0.48712307 -0.43626058 0.46082744 -0.6960373 0.25836715 0.50638807 -0.38363057 0.66092294 0.09236052 0.9894026 0.45952642 -0.14306074 0.12153598 0.5812714 0.15576458 -0.12931183 0.22493659 -1.3322966 0.74148524 0.17683327 0.8270823 -0.6512461 -0.51753795 -0.65621364 -0.53455776 0.07398455 0.63900566 -0.8836213 0.6699363 0.49612156 -0.13475427 -0.6899875 -0.1633935 -0.17643444 0.40461034 -0.01675324 0.044722915 0.16055444 -0.15902527 -0.40978953 0.36303875 0.07799419 0.03027805 0.15398422 0.037094947 -0.5334746 -0.4384724 0.17791903
633 -1.3624632 0.6784619 0.57881105 -0.022168001 0.19084112 -1.0736071 0.25741297 -0.22223538 -0.0705732 0.10315527 -0.16959849 -0.040285196 0.63124496 0.015654277 -0.33709693 0.24195306 -0.11113724 -1.5240766 0.20674543 0.5531592 0.062105257 0.27218267 -0.2116077 -0.09679694 0.43555498 0.7344252 0.22949935 -0.719061 -0.062547706 0.016244492 0.57850903 0.37916097 -0.20007654 -0.93374276 0.19746536 -0.47172916 0.37820134 -0.2709192 0.23272623 -0.29484752 0.22214162 0.3122111 -0.027427701 -0.3488377 0.14056802 -0.2013879 -0.044716567 -0.19474225 0.5858219 -0.32456577 1.355447 0.11050255 0.2531544 0.36496398 -0.18667232 -0.6630293 -0.3597506 0.44613284 0.52694666 -1.0120786 -0.25201225 0.3416732 0.44385684 -0.19569099
917 -0.86081153 -0.35172516 -0.4619964 0.177872 0.52492654 -1.1166031 -0.42522222 0.69940436 -0.518912 0.20001331 0.7576831 -0.28565323 0.50160503 0.584094 0.114555545 -0.13565835 0.8971774 -0.5834306 -0.155652 0.0060714986 0.09749293 -1.0595758 0.17726897 0.29428166 0.4863528 0.45480767 0.7046964 0.39552104 0.096756436 0.17464562 0.9992875 0.7690856 0.932669 -1.3033988 0.097833626 -0.23196551 0.71773785 -0.3649776 -0.4947363 -0.24386662 -0.07468636 0.18071234 0.36541727 -0.52474505 0.22299513 0.13799497 -0.46655378 -0.8461351 0.4423581 -0.16909942 0.11989387 0.47217375 -0.15927306 -0.07009282 0.29532993 -0.3800435 -0.7099895 0.6351213 0.20782837 -0.5396915 -0.5169713 -0.055378 -0.14039189 -0.23465447
1774 0.4266545 0.50067776 -0.56158507 -0.9461603 -0.14945033 -0.2991729 0.677147 -0.3727917 0.1704466 0.23359959 0.5112672 -0.67704433 0.33655196 0.6004166 0.4698596 -0.07158137 -0.3305161 0.18407007 0.35456282 0.11748108 -0.12316475 -0.55922353 0.30166948 -0.3632519 0.23224041 0.02908464 0.46557823 -0.05268033 -0.2091688 -0.07704656 -0.058189455 -0.43704125 0.09550188 -0.9938354 0.48201656 -0.4075527 1.102399 0.54094607 -0.543885 0.7394685 -1.3534436 0.16189826 0.39181948 0.2537106 0.3719029 0.4917616 -0.615208 0.0479768 -0.27228004 -0.07925985 0.33273894 -0.40079173 0.39343464 0.471316 0.27737984 -0.10535176 -0.15397388 0.27833804 1.1340897 -0.5209483 0.049053486 0.06983288 -0.060736697 -0.3401146
386 -0.29365283 0.71912813 0.4424336 -0.62857395 0.009723242 0.38828287 0.2333452 0.30511197 -0.012057722 0.28154564 0.3594063 0.65513974 0.5750942 -0.29339418 -0.17671438 0.18265806 -0.20848575 -0.6270202 0.39997303 -0.876001 0.25623608 0.80772156 0.056989994 0.40835863 0.36280826 0.37329894 0.34737402 -0.017433912 0.7715305 0.44428548 1.1710378 -0.6457673 0.16585012 -1.5906276 0.66394085 0.27782708 0.5445728 -0.36275238 -0.5996192 0.07430583 -0.8982207 0.10050379 -0.007690148 -0.96941966 0.90591246 0.64069045 -0.1518027 -0.7116424 0.31742615 0.6253967 0.061279763 0.03848182 0.14930892 -0.1702162 0.54291654 -0.38307777 -0.0937977 0.37075818 -0.39466318 0.15931602 0.22228299 -0.3064335 -0.26952463 0.27524647
981 -0.40752894 0.11255269 0.5233284 -0.4798981 -0.48377016 -0.8838819 0.5471282 1.0098119 0.18942681 0.08336245 0.226689 -0.1101094 -0.0042548035 -0.33336094 0.92289275 0.60387063 0.18421184 -0.39107442 0.14387375 0.20089619 0.735154 0.51456666 -0.8341913 0.35079572 0.5392829 0.100963034 0.6657531 -0.01611651 0.6182151 -0.30947953 -0.2642178 0.29436812 0.10204608 -0.9796927 0.1431719 -0.04677287 0.7456546 -0.34977186 -0.95071214 -0.45869693 -0.2247051 0.30277172 0.69727534 -0.4400532 0.6794994 1.338708 -0.12750177 -0.09226628 -0.20852967 0.36926046 0.40532747 -0.31338716 0.09465009 -0.5002708 0.042595644 0.5317021 -0.32804918 0.3911494 0.45649076 -0.16940026 -0.24808817 -0.8069966 -0.6279927 -0.80346483
434 -0.96290207 0.23427519 -0.28919038 -1.1188205 -0.06036319 -0.25601074 0.15395111 0.34098926 0.23533279 0.9459487 0.8342427 0.24825692 0.27503633 -0.8926412 0.14927565 0.15440282 -0.17370793 -0.24587795 0.43252116 0.010566643 0.696912 0.42437094 0.3157963 -0.13645913 0.51169187 -0.46862578 0.2907042 -0.35382015 0.49999702 0.11972223 1.473226 -0.049569666 -0.019574983 -0.62149894 1.0055614 0.28877965 -0.39366105 0.35869852 0.031334344 -0.44112125 -0.4295933 -0.22922708 0.013720801 -0.5404884 0.7246412 0.6845106 -1.2838174 -0.45663384 -0.43351808 -0.13641028 -0.4097777 0.24413528 0.16804469 0.14004344 0.10988938 -0.46161866 -0.5770553 0.37149593 0.06601874 -0.026668794 0.026564574 0.36176547 -0.4200022 -0.24392386
214 -0.6174341 0.6197099 0.29317534 -0.6274908 -0.12281448 -0.14708392 0.11187242 -0.16446798 0.3492489 0.26210448 -0.07142209 0.038806964 0.091187984 -0.14617114 -0.41433647 -0.14561412 -0.101995885 -0.7771288 -0.1485462 -0.3385059 1.1253047 -0.3050594 -0.29538715 -0.03484514 0.23040637 -0.049340773 -0.1287926 0.28987277 0.68798375 0.4237304 0.7488383 -0.07042383 0.67160124 -0.44449538 0.5127813 -0.6379993 1.2236019 0.1497589 0.1484506 -1.0122986 -0.59684676 0.5023264 0.2694308 0.084432505 -0.9770274 1.1676223 -0.6732024 0.046200123 -0.42617038 -0.2728432 -0.8768784 -0.09555827 0.4668896 0.026321745 0.40543333 -0.31220332 -0.06796921 0.20528267 0.21857673 -0.4815595 -0.3790882 0.12779829 -0.01005479 0.18647832
458 -0.15894014 0.7578905 0.43009925 -0.051784378 -0.56548494 -0.79982924 -0.03547995 -0.5239962 1.0064021 0.25840354 0.39694735 0.9252828 -0.38137725 0.29798937 -0.3547 -0.13286355 0.6347442 -0.09893409 -0.040607817 0.24995376 0.5255279 0.100409254 -0.62187344 -0.5401843 0.85679144 -0.572522 -0.10420308 -0.12773849 0.91870683 -0.11552784 0.47304416 -0.4782942 0.57069814 -0.9934174 0.28712428 -0.0776461 0.087590106 -0.1372964 -0.31958917 0.025773931 -0.68475413 0.95683736 0.4792876 -0.2884313 -0.5237811 0.66197896 -1.3269781 -0.7533839 0.041326255 -0.19728585 0.15770297 -0.043874692 0.5900058 -0.48933968 0.01971064 -0.63336444 0.2735436 0.085272826 0.7888194 -0.6211538 -0.44134924 0.03202027 0.029756749 0.2793615
1117 0.81192034 0.41238213 -0.43540382 -0.49910587 -0.01737758 -0.37161145 0.525069 -0.3968739 -0.06447081 -0.63990134 0.6714818 -0.9126306 0.60837686 0.2763137 0.31877965 0.16056733 -0.3858565 0.0788928 0.9931102 -0.13343018 0.45793742 0.11655252 0.15590379 -0.7053263 0.6461811 -0.016378624 0.475159 -0.34401384 0.52431923 0.016392067 0.0076845638 -0.31155047 0.54940695 -0.84782284 -0.082147956 -0.07137424 0.40903166 0.5101165 -0.28136733 0.23686966 -0.9495946 0.08467219 0.069202304 -0.38605648 0.5306015 0.897504 0.30793518 0.14948358 -0.42600435 0.16020656 0.30213654 -0.36395404 0.5538005 0.17086814 0.5336609 0.045592 -0.66150516 0.3331736 0.95528394 -0.21621658 0.0019297234 0.68097085 0.007135235 0.0089893965
888 -1.0917675 0.18072848 -0.14947428 -0.9807973 -0.06542471 -0.29295674 0.5201687 0.44501263 0.33788767 1.0744193 0.7092546 0.5072476 0.25431138 -0.68994474 0.1642624 0.017828612 0.06124809 -0.28827658 0.2750516 0.19309437 0.48403051 0.4552046 0.4850111 -0.23654649 0.47193488 -0.47054955 0.1375968 -0.5244546 0.70166445 0.5847227 1.3137225 -0.2263216 -0.04820205 -0.6006026 0.98124266 0.38813195 -0.23595907 0.600199 0.091594376 -0.22575815 -0.26208562 -0.121327505 -0.14945218 -0.6949125 0.62126815 0.87743765 -1.0428861 -0.61282176 -0.15858221 -0.26560214 -0.3648295 0.23883548 0.09204232 0.10239146 0.5640235 -0.38258672 -0.28528026 0.486313 0.03099058 -0.106043085 -0.09651754 0.34914088 -0.30706027 0.029585691
87 -0.11112041 0.48131776 0.31333295 -2.048648 -0.25447756 -0.56903714 0.021011585 -0.6573799 0.022860838 -0.2568237 0.108755834 0.2598237 -0.09408449 -0.17713124 0.6807293 -0.0073946235 0.24751678 -0.2238535 0.8885994 1.1452553 0.7677737 -0.42143157 0.5914176 0.3350103 0.58554924 0.19004136 0.046236232 -0.23499006 1.1166455 0.9216864 -0.007175248 0.5690184 0.05048627 -1.1575387 0.11728571 0.026268786 0.74122363 -0.13390942 -0.38179928 -0.19534177 -0.20052747 -0.010556574 0.9272808 -0.6590911 -0.037302084 0.18674016 -0.52413553 -0.48825753 0.08311412 0.43435293 -0.07520168 -0.55879295 -0.2543912 -0.010606734 0.21431096 0.3495553 -0.78808326 0.27763626 0.46532464 -0.707501 0.77843165 0.20065519 0.6843697 0.20628208
558 -0.20446779 -0.5804928 0.15308999 0.19233768 0.5946723 -0.8434696 0.11610733 0.4744299 -0.1822731 0.13066967 0.5117354 -0.28018317 0.5472085 0.10790187 -0.028770085 -0.24219336 0.630501 -0.794702 0.061759796 0.16643286 0.48577935 -0.81521624 -0.41477302 0.10728641 0.5807012 0.2398184 0.5872068 0.08503258 0.23573059 0.058324065 1.1090785 0.023430405 0.15589513 -1.2726566 -0.3174566 -0.3564698 0.6771364 0.1428831 -0.1474315 0.60180837 0.47777665 0.03849847 0.308589 -0.13896939 0.48407325 0.6575972 0.2081008 -0.5742619 -0.5690319 -0.6283953 0.70676553 0.19585876 0.02964208 0.7278735 0.7627753 0.18339767 -0.06559363 0.115883954 0.2944952 -1.047751 0.6134159 0.092256635 -0.18859734 0.4472012
303 -0.085171916 -0.13214855 0.56017745 -0.16784415 -0.42687082 -0.9987638 0.6794159 0.98657435 0.15044951 -0.53335327 0.42739278 0.362106 0.051267307 -0.39788973 0.9167596 0.52707785 -0.02196764 -0.16043268 0.34185115 -0.26123813 0.47229874 0.78891546 -0.889637 0.6866459 0.50709504 0.27182832 0.5843819 -0.3852487 0.6327927 0.11472618 0.07746626 0.10325911 0.115153015 -0.86249566 0.51591575 -0.35577866 0.7305467 -0.5053496 -0.58437175 -0.7115294 -0.54254264 0.1348828 0.5907242 -0.1790802 0.6743199 0.97703177 -0.071094796 -0.27834767 -0.11885033 0.19670072 0.11779669 -0.40884703 -0.07060885 -0.36320707 -0.06485915 0.3654988 0.086694226 0.3873303 0.3014567 0.16499689 0.044967752 -0.7238069 -0.164155 -0.43143257
740 -0.29179472 -0.4688877 0.37866834 -0.062019356 0.6986664 -1.3141227 0.23967783 0.38150463 -0.010566512 -0.45422664 0.3639012 -0.14589988 0.47433427 -0.26082852 0.31425086 -0.16621028 0.5214682 -0.54115975 -0.13227142 -0.07378542 0.5374824 -0.8551352 -0.06617784 -0.033921305 1.0188825 0.08960152 0.61234885 0.49022877 0.39872485 0.40223783 0.7864481 0.15370727 0.4109835 -0.81485826 -0.2460346 -0.16119762 0.23032199 -0.15239267 0.34130377 -0.3320796 -0.36555398 -0.08413718 0.30035874 0.31207046 1.0486509 0.9633669 0.23170322 -0.9010376 -0.16613512 -0.50367916 0.35991094 0.32586852 0.51145416 0.6399375 -0.013530649 -0.49627715 -0.36451387 -0.48556483 0.21348432 -0.99646306 -0.010258292 0.28414392 -0.11133738 0.41602153
197 -0.9108477 0.54203296 0.5170293 0.5924436 0.09199483 -0.88716084 0.50724816 0.33432803 -0.021901876 0.18657176 0.81854635 -0.24593934 0.643728 -0.62040234 -0.37238616 0.1532234 0.14141268 -0.71004635 0.17240544 0.72975147 0.26939997 -0.7603606 0.027416637 -0.07986592 0.31164548 0.6856828 0.45850784 -0.10580841 0.29722577 0.32240266 -0.005495605 -0.32098788 0.11985958 -0.62763774 -0.3357553 -0.48882613 0.17924586 0.24089415 0.012843185 -0.4668085 -0.4238848 -0.011609081 -0.0624964 -0.36654925 0.7157847 0.8757741 0.022259347 -0.5011938 0.5363026 0.23563977 0.86671877 0.36059964 0.5723839 -0.4546259 -0.07632328 -0.88947076 -0.4033761 0.20065096 0.26113227 -1.5049608 -0.27909422 0.5396007 -0.3953928 0.44170293
1629 -0.45299482 0.04254704 -0.09019032 -0.42797327 -0.85739535 -0.21642315 1.3520224 -0.098144285 -0.28914517 -0.3315259 0.7634924 -0.6224497 -0.4740893 -0.19606285 0.4929415 0.057114225 -0.4181722 -0.1457131 0.6434816 -0.09180311 0.014666983 -0.37707284 0.5447812 -0.31555122 0.84500045 0.179715 0.12407244 -0.15972495 -0.013102066 -0.17763521 0.05777738 0.2647241 0.95356697 -1.2783641 0.6312456 0.08348256 0.04122036 0.2841216 -0.22215904 0.06319411 -0.7864589 0.27365205 0.94144225 -0.19490452 0.45105156 0.25728324 0.17076658 0.2846775 0.16620079 -0.8375898 -0.21178465 -0.33084944 -0.2556731 -0.01794419 0.7580239 -0.18431976 0.31216198 0.94613683 0.4739461 -0.66839546 0.10050054 0.030544855 -0.4499328 0.38471416
383 -0.67044103 1.2284447 0.38597727 -0.73253757 -0.4116596 0.16243652 0.07561766 0.31733686 0.33621985 0.75234354 0.5275437 0.49000227 0.2759827 -0.19234931 -0.11021829 -0.16955046 0.20380487 0.08852637 0.3301432 -0.55385447 0.8217464 -0.062402755 -0.11978725 0.20770624 0.47864968 -0.5173867 0.113411635 -0.30302498 0.7614193 -0.24200791 1.1595553 -0.54917395 0.121763006 -1.6386253 0.33472577 -0.10429377 0.14295577 0.0787765 0.11212294 0.46358848 -0.39554837 0.5872093 -0.07718476 -0.34954464 0.3304864 0.32013574 -0.65481156 -0.75867677 0.15543582 0.36065102 -0.10812585 -0.19589393 0.61553293 -0.2430655 0.44977698 -0.7036481 0.119749196 0.12643538 -0.08103131 0.29165262 0.111789495 0.1844971 -0.27586797 0.5516057
258 -0.16087686 0.7857001 -0.1217326 -0.37683648 -0.21635899 -0.30574015 0.2617366 -0.34000626 0.88441557 0.3566999 0.29174474 0.1288963 -0.1326594 0.086683534 -0.5850861 0.07102991 -0.07143044 -0.7732927 -0.6117259 -0.21671647 1.3141441 -0.12926552 -0.023715524 -0.008980141 0.10382737 0.21659458 -0.16939594 0.07711917 0.8825363 0.15637209 0.657331 0.21761014 0.63299555 -0.4238693 0.6577212 -0.7252211 1.2847136 0.18641329 0.031345066 -0.71468186 -0.41374084 0.5622818 0.2380944 -0.014136672 -0.787782 1.3581628 -0.6825928 0.1430388 -0.44015998 -0.19403069 -0.43020302 -0.0025616002 0.5201741 -0.1834295 0.5437674 -0.041354224 -0.22665174 0.23468326 0.4048526 -0.5800268 -0.50415593 0.18700211 0.027560394 0.056321975
218 0.41187337 0.39109266 -0.24772684 -1.1788524 -0.21423596 -1.0079757 0.30614915 -0.0025283496 -0.19580959 -0.31992376 0.13440336 -1.0340008 0.07975253 0.13854986 0.073955834 -0.2743216 -0.14205752 0.36246866 0.4033952 -0.24296628 0.10254599 0.042516444 0.12959336 -0.47662365 0.42281282 0.31306064 0.63101023 0.22186221 0.03306971 0.15190506 0.063659124 0.2206683 0.60547477 -0.57093626 0.4399517 -0.19076271 1.2232051 0.4355464 -0.04132785 0.4340906 -1.0601145 0.28152266 -0.09230131 0.54989994 0.16135105 0.35661983 0.39162686 0.116662905 -0.39036423 -0.25684568 -0.20533343 -0.49710098 0.31718874 0.026936095 0.24284779 -0.2495327 -0.43143684 0.15238947 1.1474681 -0.5146281 -0.37311026 0.008698833 -0.2816038 -0.28045
1248 -0.7110641 -0.46253496 -0.4371527 -0.48221755 -0.290177 -0.50358796 0.2155439 0.4232267 0.56094027 -0.28042004 0.7302834 -0.3927863 0.5934632 -0.114951946 0.09945397 -0.4058596 -0.053549763 -0.5038865 0.5539957 -0.13515052 -0.09611145 -0.43293223 0.24532276 -0.013316481 0.4498437 -0.90014535 0.46287954 0.40417027 0.8906 0.10482622 0.46201432 -0.27084222 0.6857845 -0.89129543 1.2394524 -0.84760976 0.9099314 -0.21622546 -1.680008 -0.36596864 0.8880494 0.7587253 0.0837533 -1.4568075 0.20986602 0.044161536 -0.31453136 -0.14820763 -0.005241292 -0.65490663 0.3974677 -0.05331891 0.8379617 -0.0542059 0.12737226 -0.2812985 -0.38747358 0.90386003 0.3158515 -0.6283162 -0.49140054 0.0474923 0.3334323 0.319339
425 0.5619023 0.44436985 0.85486716 -1.4022524 0.016492736 -0.11495504 -0.31554833 -0.3031348 0.5920982 -0.25434485 0.8560521 0.03594644 -0.26286542 -0.3430486 0.81325823 0.04177476 0.18385445 -1.1909801 0.7374148 0.6428411 0.11194175 -0.33331218 0.33813098 0.16134718 0.45151448 -0.06502844 -0.19060189 -1.2969794 -0.25927994 0.7979613 -0.09480213 0.3613425 -0.13510035 -0.63075286 0.4529499 -0.46062607 0.84314424 -0.288312 0.15122475 -0.26646373 -0.2674049 0.38942945 0.460066 -1.2344949 -0.26852173 0.6391521 -0.64717776 0.5226186 -0.15862155 0.38012958 0.6080065 -0.30321878 -0.41545725 -0.1263572 0.34548467 -0.24401645 -0.88816965 0.3649278 0.6220812 -0.49227914 0.53059447 -0.10917272 -0.28120452 0.88917124
1475 -0.18635008 0.76278734 -0.09983105 -1.0073172 -0.16962837 -0.3905166 0.004480001 -0.35058287 -0.64840996 0.15457217 0.2316166 0.29352394 0.40348247 -0.6195692 0.566385 0.30415606 0.553358 -0.488833 -0.45418444 -0.67743194 1.3691418 -0.3660262 0.8140014 0.17789264 0.38988706 -0.29042536 -0.3204463 -0.59136534 0.11977066 0.18297023 0.50406295 0.33071885 1.1424556 -1.0825936 0.6677686 -0.5035131 0.0945221 0.27057958 -0.6121594 -0.51951426 -0.48726514 -0.50187635 -0.530845 -0.9236944 0.13621308 1.007593 -0.6548114 -0.07789432 0.34798598 -0.64309365 0.13537887 0.2105435 0.45631647 -0.03404278 0.24784173 -0.1505072 0.1417582 0.07750395 -0.033171374 -0.079825334 0.28163904 0.4912891 -0.5654235 0.24249272
1548 0.6975793 0.17362125 0.13788897 -0.54936486 -0.5279501 -1.4204112 0.68945706 0.14180274 -0.1270593 0.114294454 0.92379385 0.011469784 0.42333344 -0.43209913 -0.2981101 0.10241308 -0.21093534 0.05237544 0.7263926 1.0278066 0.75571406 -0.70239156 0.2607217 -0.0040301187 0.14800201 0.9960282 0.80762273 -0.31055537 0.12675655 -0.17981614 0.5489782 -0.19714223 -0.68499506 -0.17805806 0.98949707 -0.73313576 0.28965497 -0.9705886 -0.1130286 -0.20285234 0.10021775 0.20439668 0.11051464 -0.4226847 0.40258518 0.82497764 0.15206432 0.010302688 0.044692483 -0.23681836 -0.06144344 0.19399743 0.08589059 -0.04091073 0.68561506 -0.6391607 -0.114634246 -0.40224227 0.57799613 0.78230673 -0.33872354 0.90701944 -0.090971336 0.09136368
6 0.4290281 0.492892 0.76293844 -1.4269453 0.6071193 -0.8239181 -0.43299744 -0.01693761 0.090048276 -0.32939455 1.1411698 -0.35296682 0.20867965 -0.6870557 -0.2581005 0.3928297 0.04402507 -0.63897455 0.515608 -0.009888909 0.50039697 0.24624524 -0.34598324 -0.29844517 0.019429287 -0.19491167 0.093427956 -0.3306031 0.30097234 0.56873745 0.0062094703 0.68496335 -0.042043474 0.21825786 0.27901042 -0.26235616 0.6638084 -0.6673546 0.24978656 0.14806926 -0.96888644 0.7627363 0.325122 -1.0157862 0.11388762 0.5415392 -1.1373715 0.58923423 -0.5473396 -0.58253115 0.422174 0.021253219 -0.38781485 0.22443897 0.24314705 -0.6504343 -0.61807626 0.15558746 0.4725992 -0.19791283 1.0247326 -0.09717075 -0.2559317 0.33605698
234 -0.1265336 0.70681036 0.6447303 -1.6535999 -0.5414869 -0.981058 0.38222623 0.01406548 0.09035565 -0.012487429 0.2472483 -0.2613819 0.46255037 -0.45932168 0.61811167 -0.09795948 0.31791803 -0.20078199 0.14649184 0.5534322 0.84481007 0.29045793 0.47613063 0.103638925 0.3332544 -0.5681669 0.6482086 -0.18354237 1.7502549 0.017114159 0.34335196 0.36171857 0.31747824 -1.0110586 -0.0057891393 0.38291606 0.9221434 -0.7824023 -0.051222958 -0.3474434 0.0801392 -0.06771163 0.7391045 -0.37553787 -0.6818891 -0.22994788 0.7791937 -0.7288575 0.3058452 -0.42469177 0.29399094 0.20941181 -0.43464717 -0.20016047 0.3456182 -0.24095197 -0.5895006 0.49171302 0.25200403 -0.5163616 0.8125826 -0.20431532 0.20851736 -0.13297345
208 -0.4843294 0.39129576 -0.17059684 -0.13551487 -0.7224079 -0.6815998 0.9458905 -0.27658635 -0.18750346 -0.66050607 0.25037706 0.358569 0.4510166 -0.15207957 0.52586806 -0.15260302 -0.56863546 -0.3596714 -0.38862547 -0.95260096 0.6874874 0.7204615 -0.17396136 0.11761903 0.24720033 1.0965036 0.049209703 0.118988216 1.149222 0.603736 0.74939895 0.19867355 -0.011947336 -1.0085064 0.39386266 -0.66734266 0.46326143 0.5936773 -0.2278663 -0.9071294 -0.40791324 0.5060863 0.76442516 -0.3432152 0.81386703 0.6274897 -0.47968057 -0.71363705 -0.14387457 0.46002278 -0.11656358 0.4298746 -0.085416414 0.010043211 -0.2157931 -0.011023792 -0.3121568 -0.024441909 0.39609176 0.13098551 0.46694684 -0.4472298 -0.17807966 -0.07768558
1691 -0.08632993 0.024664532 0.42978334 0.6611521 0.24484783 -0.9052825 0.0596234 0.2172288 -0.57774615 0.30239695 0.5654817 -0.87158287 0.47555926 -0.8625565 0.27084863 -0.84803957 0.6255107 -1.2363026 0.20698486 0.3495464 0.6879574 -0.6060708 0.33188766 0.09808246 0.8003431 0.38314137 -0.016334252 0.13007773 0.7518073 -0.054416735 0.21142115 0.3575719 0.52231264 -1.3829931 0.27618903 0.11773197 0.29298237 0.026076684 -0.4019721 -0.6317205 -0.33405155 -0.03226543 0.29895294 -0.32061037 0.31113425 0.026359295 -0.37917256 -0.81750125 0.8794135 0.26954502 -0.15261696 -0.53672135 -0.1311426 0.4341381 0.1859738 -0.75791466 -0.7256671 -0.5228327 0.8638616 -0.6879994 -0.75109905 -0.05726429 -0.05591619 0.13156047
1528 0.4564234 0.11529394 0.011613965 -0.6112032 -0.48786053 -0.7966193 0.65722185 0.22105312 0.010059818 0.5052257 0.7835265 0.13936527 0.13596596 -0.3460359 -0.44497684 -0.043172333 0.02557502 -0.03581056 0.5439964 1.1040236 0.63981646 -0.74822825 0.67845124 0.17945375 0.28222877 1.0079557 0.5851387 -0.091219455 0.095946565 -0.30219743 0.10364731 -0.3918858 -0.42258763 -0.671671 1.1817415 -0.57150036 0.34783342 -1.1112856 -0.11882908 -0.3003225 0.22003339 0.1331044 -0.014678205 -0.72681254 0.59222454 1.0883545 0.1205982 -0.5440673 -0.3061642 -0.36808908 -0.12715086 -0.5271841 -0.2144274 -0.5588219 0.027978325 -0.96141016 0.30058178 -0.05733659 1.0823647 0.4842448 -0.637627 1.1145468 -0.41631564 0.23819947
733 -0.8022411 0.34194708 0.46239704 -0.072486095 0.22725272 -0.61953974 0.34654325 0.5564672 0.21521673 -0.03894587 0.84564716 -0.18343657 0.90895194 -0.3543054 -0.020601427 0.082037754 0.66820616 -0.64124036 0.3580165 0.70631105 0.5631084 -0.9260669 -0.1740346 0.18935516 0.5677467 0.41899326 0.7421597 0.050338246 0.27891114 0.57613605 -0.009056852 -0.037007842 0.4418199 -0.80156523 -0.40673372 -0.10471814 0.29264966 0.19631724 0.056022014 -0.5835738 -0.39906502 0.030039476 -0.195732 0.32099867 0.9187362 0.40243873 0.19497377 -0.86121845 0.7581511 -0.2760787 0.74999934 0.4425152 0.714005 -0.17703621 -0.11263355 -0.81349796 -0.68146557 0.08615636 0.41907907 -1.2791935 -0.22022314 0.698969 -0.3236245 0.8556915
702 0.06783611 0.48614663 0.91174495 -0.90445364 0.16844682 -0.5510679 0.06436976 0.12949155 0.17007709 0.27259725 0.061173584 -0.6210565 0.0035104633 0.11398235 0.060692895 0.18324792 -0.004905086 -0.6202626 0.80865264 -0.54887575 0.18940455 -0.1352342 -0.3330652 -0.14940482 0.32749024 0.24963203 0.06867178 0.049184408 0.52510446 0.9626737 0.37889078 0.34584892 -0.11362029 0.17864119 0.6481182 -1.0123333 1.0438619 -0.05619242 0.06779046 0.54243696 -0.3950476 0.93006533 0.2448339 0.15107676 -0.09493034 0.6496983 -1.5633955 -0.0035789926 0.21333146 -0.18262275 0.24238747 -0.42943096 0.07875778 -0.45608503 0.72633487 -0.22965221 -0.2707984 0.42975473 1.0483928 -0.6856151 -0.07495788 -0.00830147 0.10422238 0.2590492
480 -0.66864353 1.0481532 0.010932335 -0.8885421 -0.4552925 -0.45825392 0.06266344 -0.5279319 0.5929357 0.50678027 1.5551434 0.68582696 -0.124759585 -0.4864326 -0.12913081 0.45698428 0.76511186 -0.010104546 -0.03698257 0.20926368 0.2161644 0.47117317 -0.19231611 -1.1895999 0.8883149 -0.74887884 0.42423627 -0.7574983 0.050252877 0.55478173 1.0341698 0.3389347 0.12811635 -0.1012923 0.67815405 0.110217035 -0.024313059 -0.17215459 0.0043195416 -0.5123553 -0.6364305 -0.08415442 0.45989156 -0.6089149 0.50374436 1.0171334 -1.256224 -0.16462298 -0.123578705 -0.4921158 -0.33137095 0.22634575 -0.19316316 0.32243848 0.65556014 -0.26359472 -0.6029266 -0.04645659 -0.045512833 -0.33778515 -0.4279063 0.419236 0.1619138 -0.32637346
1721 0.34788597 0.26120982 -0.047351077 -0.98587227 0.3419342 -0.7184143 0.45602503 -0.15912399 -0.2154817 -0.21148957 0.61060125 -0.833452 0.20103814 0.16678289 -0.001895883 0.21466513 -0.055617064 0.07410235 0.84158707 0.07236907 0.38706315 0.12488402 0.1343994 -0.675025 0.062690526 0.2493236 0.47677726 -0.18762541 0.15824345 -0.04908226 0.16411716 -0.32035357 0.41124833 -0.9757297 0.16356832 0.089307226 0.71530616 0.84328586 -0.025426315 0.556829 -1.0697459 0.28448284 0.045588113 0.47034106 0.41283393 0.51927865 0.116556056 -0.2695495 -0.63298565 0.30696392 0.29692915 -0.29762623 0.35304844 -0.04610149 0.63390195 0.098345265 -0.2797809 0.58161604 1.08398 -0.26163372 -0.15520056 0.12996866 -0.18851902 -0.41290635
1630 -0.58854216 -0.103222385 -0.057889476 -0.5042742 -0.6388433 -0.50743705 0.53362066 -0.17495024 -0.46805093 -0.27484486 0.5126644 0.1437271 0.2986629 -0.49285856 0.5560537 0.03731698 -0.77735686 -0.1589094 0.72148114 0.06551071 0.22126888 -0.3741489 0.15598676 -0.27686173 0.8854625 0.004133556 0.060885374 0.3787464 -0.30187345 -0.21376932 -0.18260947 -0.054321483 0.9082963 -1.0007 0.75764656 0.178507 0.10902414 0.34473023 -0.09331184 0.21361211 -0.47177958 0.4090227 1.1082445 0.1331493 0.525929 0.06636147 0.010189185 0.07901266 0.030792903 -0.8137806 0.08735875 -0.18527745 -0.5327638 -0.32844406 0.9214836 -0.3052485 0.17910688 0.66246855 0.7548362 -0.3830763 -0.04404918 0.28825167 -0.9754326 0.29140073
172 -0.025623458 -0.14081584 0.26355478 -1.4137554 -0.69565845 -0.9235606 0.30506817 -0.029624555 0.081409656 0.690343 1.090169 0.40197954 0.67764807 -0.57724667 -0.1750777 -0.75855744 0.19973485 -0.33080178 0.62585795 0.44073486 0.37263364 0.49426588 0.5268106 -0.9897772 0.9823197 -0.720226 1.0914336 0.2271298 0.571533 -0.10685374 1.186006 1.0577661 -0.02289284 -0.66123927 -0.09312486 -0.4005049 0.58699644 -0.64608073 -0.19972263 -0.27201962 -0.104092404 -0.18642667 0.3744338 -0.55186343 0.12587188 1.307733 -0.3373277 -0.16061209 0.2327144 0.2504021 1.0379913 -0.39133647 -0.07348143 -0.58438945 -0.35409135 -0.2916691 -0.2963673 0.42510188 0.31436723 -0.17292827 0.5399248 -0.7670549 -0.24185067 -0.4733086
384 -0.667164 1.0578821 0.116027854 -0.45877355 -0.17568769 0.30455962 -0.06820084 0.12989745 0.06749609 0.72283876 0.6429411 0.9600666 0.4032796 -0.532255 0.18142816 0.10269934 -0.15879118 -0.050266784 0.2046839 -0.702694 0.6506515 0.2637257 -0.0113064805 0.29577252 0.7032109 -0.45850325 0.2618691 0.13873577 0.7717655 0.2456237 0.9096506 -0.18073422 0.006395591 -1.30582 0.42013383 0.2740892 0.5121339 0.04796583 -0.17691165 0.33162248 -0.4163837 0.41882747 0.026340146 -0.7615093 0.38116667 0.6589724 -0.4763125 -0.50057507 0.22444074 0.3046623 -0.013093035 -0.17315164 0.76138705 0.12505351 0.5449852 -0.7377857 -0.096643634 0.11411942 -0.32954782 0.34052652 0.1295871 0.27486128 -0.33898145 0.43708864
388 0.07098747 0.59535015 0.13229524 -0.75135005 0.030965585 -0.089843705 0.39662704 0.5319105 0.15779448 -0.61296517 0.41167888 0.5793825 0.37943447 -0.57099956 -0.23598792 0.45764688 -0.40630287 -0.5018176 0.12106387 -1.0183543 0.47674412 0.51417214 -0.23378009 0.39553663 0.033252276 0.5448759 0.68577015 0.13261922 0.4194029 0.39672673 0.32182774 -0.46012175 0.067365944 -1.5322521 0.6955376 -0.012918018 0.5649877 -0.8970188 -0.35704124 -0.24751168 -1.0706258 0.39217794 0.3982715 -0.5511253 0.83386403 0.6670955 -0.20845953 -0.7405931 0.28163844 0.11091702 0.17608799 0.094118774 -0.46105108 0.14321736 0.33760384 -0.19596565 0.42955068 0.22446011 -0.26179206 0.37578323 0.39146522 -0.7478982 -0.24327858 0.080799155
304 -0.031844787 0.09718746 0.21844144 -0.43031666 -0.33136195 -0.9195185 0.8578338 1.2694803 -0.427401 0.21533716 0.3383177 0.001692487 0.18790278 -0.4288966 0.7487121 0.8938305 0.48081067 -0.2999386 0.13358949 -0.020685289 0.68105227 0.7310113 -1.146318 0.10598305 0.7253626 -0.18640162 0.6759891 -0.5157232 0.7557 -0.1040162 -0.21051463 0.08710964 0.3429021 -0.95819503 0.18311542 -0.13868804 0.86899316 -0.34418532 -0.5708982 -0.6094736 0.31343275 0.4572095 0.5644222 -0.3062885 0.50859684 1.2240131 -0.22467607 -0.61309034 -0.31685016 0.11706097 0.016843008 -0.04353689 -0.1326648 -0.8083667 0.07293738 0.1085565 0.26230463 0.85671455 0.47719365 -0.52392226 -0.14575346 -0.59805655 -0.23486646 -0.41121823
988 0.28223842 0.034625806 -0.39860615 -0.919312 0.12969378 -0.5824886 0.44383767 0.026308212 -0.3568049 -0.6941489 -0.011016367 -0.7148146 0.32159993 -0.022161113 0.0002944336 -0.5099615 -0.71736455 -0.28980392 0.79516095 0.2817469 -0.053643335 -0.081199296 0.008485788 -0.4048248 0.58168375 0.01833213 0.6683834 -0.13295588 0.23380174 0.40549186 0.06400803 -0.82343113 0.7197199 -0.7858418 0.29302943 -0.02406621 0.5620438 0.27926502 -0.38004553 0.78489864 -0.7188627 0.5077512 -0.18884273 0.080599725 0.040460605 0.60049975 -0.06228229 -0.47824413 -0.36068404 -0.42309603 -0.06658554 -0.64726293 -0.52452254 0.4688828 0.5077631 -0.6026203 0.25227043 0.1823031 0.75594413 -0.34732163 0.0795405 0.50309134 0.049607284 -0.28372818
577 0.074845284 0.5087046 -0.068037026 -0.6180482 0.4290958 -0.6993056 0.44066477 0.15355098 0.13840872 -0.13499606 0.10102198 -1.0710644 -0.037973363 0.41685817 0.041720632 -0.4077638 -0.57157844 0.20398277 0.49413475 -0.35428256 -0.18776843 -0.44366246 -0.47171345 -0.47258046 0.59153086 -0.021412294 0.5036084 0.00758885 0.0833701 0.05066037 0.031232672 -0.4796782 0.05208863 -0.81697136 0.5227511 -0.35784218 0.58390003 0.7727838 -0.15865923 0.72117484 -0.65593445 0.26932618 0.4924031 0.012878558 0.23740566 0.5722103 -0.0585446 -0.59956795 -0.57663184 -0.27316272 -0.08426574 -0.6692449 -0.28751937 0.32990104 0.3453151 -0.10942012 -0.12115171 0.47598103 0.67049766 -0.51752526 0.24514432 0.32020202 0.07385539 -0.35043946
896 0.13424045 1.225612 0.5662431 -0.77649266 -0.06511058 -0.3343538 -0.028313786 -0.13951366 -0.22725089 0.27105987 0.356305 -0.19745597 0.113354966 0.02183724 0.051368732 -0.1849202 0.20097595 0.10985525 1.0626851 -0.41337276 0.20565093 -0.33771038 -1.1807835 -0.35253873 0.8553845 0.031533055 0.06580038 0.11350217 0.7485194 -0.15524165 0.4241313 -0.16485043 0.00060022157 -0.7777267 0.42555475 -0.09012824 0.7211811 0.00044471206 -0.03323111 0.46066907 -0.672819 1.011856 0.15020218 -0.50844556 -0.41093102 -0.19827595 -1.1222247 -0.310999 -0.029960928 -0.5209431 0.11074494 -0.08705945 0.4662418 -0.37058067 0.11615596 -0.4362629 -0.031403475 -0.3265241 0.55036044 -0.16744424 -0.8173639 0.3267369 -0.19114308 -0.08678771
1 0.33731967 -0.15190347 0.7397088 -1.1908935 -0.5491157 -0.23642209 0.06720446 0.3179587 0.6488378 -0.52255607 0.35923168 -0.22873484 -0.11216632 0.026234223 0.4594339 0.014349394 -0.5822336 -0.57847965 0.21777715 0.09768367 0.2405606 -0.20396072 -0.1116722 -0.36542547 0.29621786 -0.065792814 -0.83472896 -0.28759485 -0.16628712 0.17842713 0.32342082 -0.10484981 0.40983716 -0.8500465 0.7158726 0.013408446 0.4291337 0.23808652 -0.033254318 -0.08558626 0.013838883 0.5691411 0.51420957 -0.7335478 1.0943497 0.47851813 -0.29795665 0.751224 0.11474757 -0.36428985 0.44556355 0.1356462 -1.054062 -0.38259566 1.0008024 -1.1035825 -0.46187237 0.7108542 0.41523352 -0.51192605 0.24087313 0.9510887 -0.66923463 0.015602793
1844 -0.43508413 -0.16689275 -0.47288775 -0.76739657 -0.13015068 0.19726075 0.2943178 0.10606165 -0.10689214 0.25891364 0.6706339 0.36692932 0.4212725 0.018329479 0.96095484 0.015576198 -0.7193262 -0.7251679 -0.13947771 -0.8808351 0.026740156 0.17032619 0.071844585 0.45185488 0.5720275 0.7174664 0.96152776 -0.57840425 0.6173007 0.37041876 1.3946742 0.04976211 0.12304476 -1.226014 0.27690986 -0.24287201 0.86441594 0.33404085 0.5052194 -0.6321788 -0.4654724 -0.032354616 0.22060962 -1.8085501 0.88665307 0.44441825 -0.73405445 0.11975434 -0.13033813 0.2896196 0.07425105 -0.13718343 0.6977117 -0.46946 0.7357794 -0.534178 -0.45911255 0.11753908 0.09438254 -0.09980075 -0.17054056 -0.853509 0.42968136 -0.28454497
157 -0.34566134 0.15902022 0.4425595 -0.36272094 -1.1153082 -0.4242906 0.6357447 0.05789617 0.09883658 0.03351665 -0.18572225 -0.06861292 0.53536665 0.06284325 -0.684073 1.0119507 -0.05962381 -0.063541315 0.49637595 0.28942165 0.3753708 -0.9598009 -0.07943634 -0.062748656 0.07572762 -0.27077806 1.0086088 -0.24993096 0.31734338 -0.34373936 0.6496363 -0.24725291 -0.24148516 -0.45108032 0.45762298 0.08837641 1.0650859 -0.5078365 -0.35194933 -0.52131075 0.21777883 -0.06731966 0.4200478 -0.5769599 0.8438862 0.99544924 -0.83708197 -0.28288352 0.3269303 -0.2755228 0.23269176 -0.23650515 -0.7752673 -0.59760904 0.32805413 -0.15805797 -0.45444015 -0.7592729 1.5213794 0.61217767 -0.28807756 0.6370918 0.122810595 0.087521724
1356 -0.9005059 -0.41140744 -0.31107777 0.39646506 0.3153041 -1.3561805 -0.48666397 0.4862804 -0.27612132 -0.14755705 0.74402195 0.018254163 0.29655448 0.6271028 0.023472758 -0.024757862 0.55996364 -0.38828295 0.29184794 0.27576563 0.42299083 -0.5176528 -0.21335538 0.20996977 0.85574687 0.6100943 0.2981882 0.34595305 0.08160941 0.07866063 0.86334485 0.7637574 0.9341166 -1.3869436 0.32930103 -0.3276348 0.60873795 -0.38674322 -0.056743514 0.2606333 -0.19198145 -0.35675094 0.13767025 -0.0372161 0.088513836 0.6941128 -0.07957463 -0.97997737 0.5118337 -0.16987495 0.24210176 0.38728064 -0.5352694 0.09861633 0.6693276 -0.38776892 -0.95151156 0.48061594 0.3111395 -0.65184045 -0.0085116 -0.14896432 0.45926625 0.1773747
745 0.3360158 0.7586616 -0.14861695 -0.10833505 -0.08660914 -1.4771354 0.8268887 -0.39499995 -0.29042333 -0.3445096 1.3363322 0.4969841 0.2987025 -0.43275958 0.18152869 0.58043146 0.0018083799 -0.57648283 0.7081537 0.37188435 0.6667241 -0.6877831 0.101150595 0.21760245 -0.018658377 0.66902405 0.7983334 -0.038105283 0.028624652 -0.4379431 0.9354288 -0.1816445 -0.5227318 -0.4117976 0.9023737 -0.5823702 0.560527 -0.19264986 -0.39001974 -0.78114 0.24577615 0.7210829 -0.20443347 -0.702611 -0.2404792 0.1742965 0.1935154 0.2885342 -0.16132309 0.026926858 0.44034046 -0.47552583 -0.26216736 -0.29524562 0.81123203 -0.3564154 -0.09730665 -0.54185396 0.82575023 0.788032 -0.40894005 0.28220096 0.016467692 0.091602884
370 0.22479808 -0.27659717 -0.076687664 -0.46977323 -0.40846118 -0.6974788 1.021125 0.69287163 -0.26422742 -0.5918011 0.44519427 0.026201015 -0.16670957 -0.3149251 0.62242866 0.5743134 0.36277246 -0.35665867 0.70597243 -0.1502455 -0.066097215 0.60053575 -1.1382138 0.6205036 0.6445087 0.18167017 0.3247237 -1.2246126 0.8411548 -0.43155837 0.52445763 0.768247 0.0813974 -0.8418292 0.56403375 -0.23444481 0.6576559 -0.38923475 -0.28347477 -0.8276076 -0.27423367 0.07532599 0.3513283 -0.40929893 0.34434402 0.674589 0.06041614 -0.81737447 0.13522522 -0.13115487 0.1579799 -0.28126955 -0.20677115 -0.6134988 -0.34351173 -0.08736614 0.10582559 0.2304931 0.50441384 0.40520722 0.017241318 -0.052265808 -0.43973234 -0.08663845
243 0.24480028 0.33526418 0.5657221 -0.42519385 -1.12929 -0.9057606 0.7670589 0.20041065 -0.022762705 -0.19726329 0.11794507 -0.11777711 0.6009158 0.19827168 -0.6877948 0.6163629 -0.14252205 0.23688115 0.6580792 0.19871202 0.106417045 -0.6347205 0.38947305 0.17885989 -0.00724254 0.18902022 0.8183458 -0.18330982 0.21514541 -0.4407508 0.6137825 -0.20094015 -0.33736095 -0.4892327 0.5787502 -0.14155656 0.72000384 -0.48617715 -0.29407558 -0.515157 0.4847316 -0.32964176 -0.18504167 -0.5072426 0.8817382 0.73514223 -0.5901594 -0.286609 0.5707626 0.13527763 -0.09622069 -0.037952095 -0.4681152 -0.18752867 0.1797994 -0.9062459 0.079519376 -0.33884344 1.332213 0.5529338 0.07911361 0.46380755 0.13733295 0.06692389
255 0.9633338 0.0056537823 0.32587966 -0.6713287 -0.9039787 -0.9179255 -0.5478249 0.07047084 0.81736904 0.39917952 0.1683882 -0.6609432 -0.50238013 0.018199477 -0.909422 -0.07042351 0.35669544 -0.5448573 0.12400059 -0.067185596 0.84063786 -0.121209085 -0.13441525 -0.15496443 0.94891036 0.31457222 0.1508722 -0.0737962 0.6080056 -0.675395 0.42284775 0.121414445 0.2567871 -0.5544425 0.9507448 -0.26604468 0.43964162 0.29775813 -0.23167637 -0.98177123 -0.18616095 0.8296074 0.78637207 -0.16426918 -0.5466471 0.7528726 -0.85482633 -0.5959391 0.45096263 -0.66556776 0.27021092 0.5384714 0.35508227 -0.3574182 0.40864366 -0.71591806 0.37393126 0.7106269 0.26067245 -0.9573812 -0.5120378 -0.31541923 -0.12575032 -0.10665061
496 0.15956202 0.37413234 0.34308392 -0.39069963 -0.9407336 -1.215388 0.71154696 0.15338166 -0.15754774 -0.2206207 0.812208 -0.124585375 0.7883969 -0.3214135 -0.40592164 0.40833277 -0.2061439 0.25720865 0.5404629 0.76581544 0.33240983 -0.65032625 0.16391212 0.41136554 0.092501596 0.49294055 0.45035535 -0.19167164 -0.22566624 -0.45428443 0.933408 -0.3677443 -0.799635 -0.28897318 0.93039554 -0.5653996 0.33874813 -0.5958329 -0.17801662 -0.43296948 0.20346396 0.24257039 0.037908312 -0.65009105 0.2527647 0.5350367 -0.34933355 -0.009283998 0.17805701 0.2591591 0.1342217 -0.12042466 -0.44077122 -0.28643304 0.5609833 -0.9151843 0.20037316 -0.513786 0.7477781 0.44166243 0.28970182 0.5923953 0.263097 0.0060879877
914 -0.8086715 0.70908016 -0.2154908 0.16704679 0.26979285 -1.0097027 -0.23469613 -0.097918846 -0.096604414 0.59857386 0.5888612 -0.34282523 0.29695988 0.21103342 -0.32849672 -0.11814056 0.45709294 -0.10901976 0.48377427 0.375379 0.123252794 -0.72210187 0.18267052 0.19779453 0.20550947 1.1845434 0.01728576 -0.69897556 -0.041908696 0.10320945 0.5686809 0.34197074 0.82746893 -1.3134761 0.2629572 -0.41396114 0.60127264 -0.42642295 -0.44174168 0.0077717016 -0.10549422 -0.38959736 0.46632248 -0.33287078 0.07320466 0.73347664 -0.14495732 -0.6586917 0.7223079 -0.37537447 0.7447214 0.55226403 -0.2856017 0.10538101 0.26825204 -0.5639053 -1.1477059 0.25811645 -0.13203926 -1.0191314 -0.3486324 -0.15272112 0.12392522 -0.4384235
280 0.026188001 0.32213327 -0.12264813 -0.24675052 -0.47624025 -0.7180548 0.95536435 0.85361767 -0.33703375 -0.018147148 0.43640953 -0.22386937 0.06689173 -0.6183076 0.64617205 0.84621716 0.37526885 -0.22797294 0.2700938 0.08377264 0.5432516 0.6557032 -1.2192619 0.24360938 0.56812 -0.4748264 0.36261064 -0.9039793 0.93056923 -0.24030836 0.28225517 0.40656492 0.39431748 -1.0214368 0.16458027 0.04140836 0.82599616 -0.6166802 -0.82986754 -0.92314297 0.5285418 0.48277104 0.47093716 -0.21093394 0.25545278 1.0588812 -0.059782006 -0.5184913 -0.3956428 0.2879585 -0.077979706 -0.092218064 -0.28632578 -0.4221476 -0.25633186 -0.057030324 0.16115217 0.7541636 0.57141614 -0.25795913 -0.06569281 -0.48419032 -0.2994546 -0.18829297
62 0.12771901 -0.07291727 0.57061595 0.79148245 -0.32822648 -1.9853077 0.085309096 0.5285112 -0.5873874 0.95983815 0.40384227 -0.42737317 1.0985594 0.18595637 0.6755241 -0.43008193 0.39059624 -0.5075589 0.3235483 -0.24114062 0.34358466 0.16328381 0.16822763 0.002838474 0.9032079 0.091959424 0.31263465 -0.16896488 1.0549651 0.24081789 -0.23284002 0.8493331 0.05719189 -1.6742052 0.4655174 -0.6382884 1.0438343 0.22844623 0.60320556 0.08653214 0.0013405345 0.009997594 0.6029355 0.09572643 0.3427006 -0.05025586 0.024643157 0.8908885 0.25638798 -0.465667 0.5945884 -0.22185366 0.8195431 1.0312116 -0.020889353 -1.3105402 -0.614055 0.46030778 0.16748421 -0.64115894 -0.30474895 0.5866815 0.32703742 0.37734023
187 -0.6485246 0.6790104 -0.18431868 -0.7607355 -0.013516847 -0.3318715 0.2968025 0.18782076 -0.28084403 1.0200824 0.45213342 0.6836473 0.15975067 -0.67339605 0.20347719 -0.1725087 -0.20499356 -0.21126047 0.13299468 -0.36129496 0.8803618 0.0051975357 0.34529856 -0.11916164 -0.08153356 -0.83797854 0.10202048 -0.09399815 0.6210914 0.78667253 0.81083125 -0.040465564 0.16449094 -0.87660927 1.0436077 0.33886495 0.0049030567 0.27704826 -0.029828075 -0.335453 -0.48376754 0.22941437 -0.26002067 -0.7675427 0.27719602 0.928961 -0.56997067 -0.23333922 -0.00047204056 0.1468425 -0.28530034 -0.13097404 0.8615111 -0.050450396 0.95016754 -0.49185088 0.04816644 0.34747025 -0.25890267 0.25657228 0.39785326 0.38155964 -0.259946 0.2551253
649 -0.033166427 0.21024795 -0.019667594 -0.6402708 -0.615326 -0.5340558 0.8411768 -0.00021306949 0.013765877 -0.043327436 0.65350544 -0.065932214 -0.5355067 -0.11092788 0.041941516 0.23883913 -0.28090933 -0.5123699 0.22729464 -0.10908373 -0.066902384 -0.64452946 -0.0302742 0.50061685 0.73814 0.6857351 0.29763797 -1.0338552 0.6489833 -0.2385994 0.5168387 0.21270603 -0.36211467 -0.3356152 0.7081815 -0.32942888 1.183296 -0.8282326 -0.66806316 -0.25629345 0.28327698 -0.11414579 0.3466002 -0.4289479 1.1119995 0.7728188 -0.054670162 -0.85436726 -0.0027372849 -0.47231567 -0.28260925 -0.40555003 0.046962254 -0.24962834 -0.71280295 -0.89064807 0.047334347 0.18829015 1.0862967 0.7662706 0.20577806 0.1871677 0.25712356 -0.08425616
475 -0.50381684 0.21000186 0.030569816 -0.73098856 -0.3406184 -0.12230977 -0.071335636 -0.14883862 -0.13669543 0.57187694 0.4264279 0.67854315 -0.22128797 -0.42858633 0.93844825 0.2096103 -0.2559088 -0.21837525 -0.5658802 -0.7913469 -0.011380661 0.05727681 0.51288396 0.2169338 0.58937323 0.42696968 0.8923744 -0.45570344 0.39965725 0.1377676 1.2314743 -0.07451873 0.3531004 -1.3739947 -0.03809854 -0.0139031 0.46845385 0.29973087 0.7242101 -0.40543056 -0.3134734 0.22294404 0.26426026 -1.6738507 1.0959463 0.85852313 -0.7013649 -0.09224656 -0.18299098 0.3371699 0.19843668 -0.22384313 0.3995746 -0.45206365 0.6304281 -0.51463884 -0.1687426 -0.086090505 -0.23657595 0.018162599 0.14826117 -0.57208765 -0.033991914 -0.1916644
730 -0.43768156 -0.18182376 -0.035973895 0.3895065 0.7259219 -1.036818 -0.15565456 0.28993148 -0.12491818 0.33331594 0.43739444 -0.8486526 0.28238586 -0.4966493 0.49847808 0.04721672 1.2113452 -1.0168461 0.20757721 0.8909625 0.51498264 -0.57454175 0.61446816 -0.11256902 0.2626098 0.18138444 0.37374765 0.4012063 0.5208879 -0.087029144 0.6409403 0.808889 0.36561236 -1.7165263 -0.29752323 -0.27342957 0.6743931 -0.21213822 -0.5548946 -0.16432981 -0.40301344 -0.21640666 0.042329233 0.27923003 0.82319033 0.28531107 -0.3219429 -0.8657282 0.48792264 0.13289085 0.19629377 0.2492995 0.01492787 0.18240562 0.6970461 -0.56353074 -0.52674437 0.40250984 0.31436187 -0.45357218 -0.30438006 0.22479422 0.13768047 0.020084117
110 -0.35477275 0.821858 -0.11689737 -1.5079428 -0.38011897 -0.45593905 -0.63805217 0.13722877 0.46352717 -0.7871023 0.99368453 0.35069418 0.021696124 -0.07093901 0.63227934 -0.36249635 0.044527505 -1.464919 0.693413 1.4475179 0.8558085 -0.3785478 0.3872358 -0.36702454 -0.09153493 0.13686872 -0.2794931 -0.43150017 0.1361206 0.15062271 0.14005667 0.15021183 -0.14392126 -0.9769293 0.2684461 0.032406673 1.2662863 0.018916978 0.037939005 -0.38037834 -0.0067247455 0.27071744 1.1652002 -0.7490888 0.23830043 -0.2778556 -0.6457963 -0.76696384 0.107068226 0.12300586 0.08708192 -0.22113904 0.015883928 -0.2505068 0.109221965 0.103676446 -0.20120016 0.58784086 0.58112556 -0.3670918 0.14488107 -0.33308867 0.066730455 0.7031644
161 -0.79224133 0.3382997 -0.0877117 -0.7330033 -0.34266785 -0.4344279 0.5920318 0.0028192634 0.17801042 0.6105658 0.034130875 -0.23175752 0.7903997 -0.30110338 0.94847405 0.25819042 -0.37025994 -0.330724 -0.16412261 0.14965598 0.75204873 0.4642063 0.2393187 -0.17863889 0.9554418 0.047769822 0.45492113 0.064560086 0.75203556 -0.37984505 1.5286945 -0.47724226 0.040133968 -0.4290914 0.8095173 0.23597728 0.052228328 -0.18989086 -0.42881587 -0.13041286 -0.083051346 0.4908244 0.84573257 -0.82606107 1.1046789 1.2634252 -0.7501004 -0.12533547 -0.011323025 0.3018688 0.06494276 -0.13109249 0.06727707 -0.05449114 0.5364375 0.5031888 -0.520769 -0.17817593 0.13015768 -0.6607912 -0.5347096 -1.5013498 -0.19429047 -0.42042953
2059 -0.46405664 -0.27325743 0.19323444 -0.14728072 -0.7128618 -0.47862187 0.1133469 -0.27739745 -0.32087153 -0.38899013 0.42726094 -0.12781712 0.103543594 -0.12650153 0.69911397 -0.18608877 -0.9730161 -0.21787666 0.7485403 0.39743388 0.19591218 -0.31185997 -0.13006762 -0.23037858 0.9215835 -0.08824795 0.066093475 0.19703634 -0.21445541 -0.026547367 0.26611605 -0.272421 0.7955342 -1.0702395 0.9136004 0.2189727 0.36259902 0.3053205 -0.011840205 0.32564747 0.04641356 -0.09783983 0.89335704 0.18041055 0.72801566 0.5473623 0.17960444 0.5078582 -0.13498296 -0.92886895 0.32448864 -0.50920063 -0.47809368 0.054112025 0.76721853 -0.6112385 0.37484708 0.34288558 0.83243304 -0.44599897 0.2954101 0.11041394 -0.8021679 0.7684053
1695 -0.6016255 0.20477872 0.505007 -0.91748816 -0.6819043 -0.6950682 1.0696789 -0.44774562 -0.6957266 -0.07761051 0.69911695 -0.8802117 0.15138632 0.496371 0.18871716 -0.37485334 -0.40603596 -0.6674398 0.5529257 -0.16312507 0.20153652 -0.1695614 0.278548 -0.32549536 0.75380456 -0.13572416 -0.038729485 0.38499638 -0.2944065 -0.09111348 -0.066189855 0.08226022 0.7021915 -1.5149801 0.4247993 -0.07499729 0.80146146 0.38274258 -0.34210974 0.2435588 -0.66801745 -0.10795739 0.3855756 -0.34971723 0.52656955 0.10515207 0.31871885 0.19533272 -0.44874913 -0.6390395 0.04257293 -0.61304283 -0.043625493 -0.76175416 0.39672136 -0.36874107 0.32501724 0.44635236 0.14832576 -0.28008997 -0.3195747 -0.27518573 -1.2962095 -0.037785124
579 0.064588144 1.280532 0.5102781 -0.65575874 0.0813219 -0.4941583 0.120889865 -0.070855156 0.017725814 0.21775195 0.2687809 -0.029587323 0.14434944 0.00481484 -0.15393074 0.2763336 0.08840486 0.10728345 1.0161555 -0.24536213 -0.01390771 -0.2724636 -0.94390494 -0.22643016 0.79865384 0.18391365 -0.0069375685 0.004801371 0.8551931 -0.18323098 0.30812323 -0.3039771 -0.013622116 -0.8625696 0.28524217 -0.19341917 0.88385844 0.0049604103 -0.18650779 0.4603517 -0.70824105 1.2798948 0.24391232 -0.2959839 -0.41951498 -0.24933542 -1.4628257 -0.19316906 0.11291765 -0.58098876 -0.032884408 -0.30556858 0.6333401 -0.21289077 0.17097948 -0.4312694 -0.047787223 0.016139068 0.5040176 -0.207649 -0.54391766 0.42067564 0.009421532 -0.057029746
50 -0.26227513 -0.80220294 -0.017001964 0.028807232 -0.8436776 -0.94637036 0.52501833 -0.83139724 -0.5299816 -0.3278427 0.51374173 -0.43487227 0.31614366 -0.5832952 0.3194797 -0.48033753 -0.4555243 -0.6784745 0.44792083 0.21979654 0.039393928 -0.20389627 0.08184468 -0.6240406 0.13281113 -0.27791294 0.35470113 -0.25846767 -0.05137713 0.24145928 -0.06029563 -0.25144833 0.14261813 -0.72044176 0.63083565 -0.030474404 0.34436443 0.42265567 0.67406565 0.3579888 0.36223873 0.86595815 0.9098996 -0.6491062 0.9894518 0.5499102 -0.47470215 -0.38775447 -0.7729056 -0.45901287 0.55391765 -0.48057705 -0.5941017 0.62846416 0.04380495 -0.14960815 0.028532801 0.5900106 0.49434733 -0.9127742 -0.85729504 0.33764187 -0.008182751 -0.26900297
305 -0.112203255 0.27553576 0.0636927 -0.61461174 -0.48165062 -0.99430716 0.5713351 0.76912594 -0.37163177 0.041732658 0.52617395 0.33220822 0.29250547 -0.9237147 0.43622 0.8326112 0.28648716 -0.37074313 0.39428833 0.046062622 0.7929652 0.70474374 -0.90836275 0.07153556 0.40064523 -0.56816363 0.38139296 -0.71369565 0.80276614 0.03414232 -0.104266696 0.3166343 0.55295455 -1.0631957 0.13985837 -0.014907345 0.856035 -0.21583419 -0.8298215 -0.7570609 0.36200222 0.054419495 0.77294016 0.06802959 0.23039912 1.1477503 -0.014754192 -0.20171943 -0.15412673 0.34813863 -0.0009371448 -0.0385271 -0.56696814 -0.7683728 -0.07379204 0.21706343 0.10109939 0.7403198 0.5576619 -0.57885844 -0.10130737 -0.87681586 -0.4293657 -0.30486652
611 -0.07239134 0.86746305 0.27552378 -1.2362281 -1.3424604 -0.73475826 0.28090784 -0.11874815 -0.5376603 0.53178763 -0.257819 -0.5491981 0.3652222 -0.7292198 0.4364809 0.70162547 0.29688203 -0.4857861 -0.19971262 0.77900183 0.24183615 -0.42528355 -0.020055695 -0.051748987 0.44046015 -0.5210461 0.695536 -0.07230782 1.8801926 0.36680856 0.53604853 -0.12581733 0.35362774 -0.9661401 0.648879 0.01933644 0.5208647 -0.6326942 0.33472183 -0.10625406 -0.5008799 -0.05319034 0.43456453 -0.4562393 -0.16896555 -0.071406394 0.5763177 -0.99982566 0.17993401 -0.3818947 0.16270746 0.51025826 -0.8500235 0.111562744 0.04219069 -0.09346865 -0.5448195 -0.034871634 0.86427724 -0.50871927 0.5201592 -0.20583482 -0.3143454 0.5606444
19 0.48768076 0.39556542 0.06833439 -0.15606353 -0.53804237 -0.9899223 0.019889949 -0.40969476 0.89959794 0.6865736 0.18698408 0.51216805 -0.96989864 -0.065303944 -0.66608745 -0.49946225 0.050453268 -0.27216306 -0.5214636 0.24007474 0.89726394 0.37150443 -0.33503044 -0.21215762 0.63190156 -0.111816265 -0.16041246 -0.24263124 0.470439 0.08355083 0.27011245 -0.24939637 0.37527895 -1.047698 0.51378584 -0.58185613 0.7999401 0.4164173 0.071219236 -0.7126153 -0.20081171 0.8583323 0.7662252 -0.3780218 -0.35163793 1.484485 -0.048222333 -0.05606753 0.18148045 -0.26649675 -0.75647527 0.06924802 0.57618165 -0.24853048 0.9042582 -0.36577976 0.36472052 -0.2018854 0.6278805 -0.83711904 -0.109433465 0.33814016 0.104552284 -0.2320607
1657 0.7046773 0.22865906 -0.31344923 -0.6866517 0.18092754 -0.06830482 0.4209423 -0.4497634 -0.121666424 -0.22303289 0.6484917 -0.3897419 0.4260189 0.3145149 0.33509323 0.075673714 -0.32138035 -0.07263606 0.7680372 0.28380007 0.55200577 0.29106778 0.15899944 -0.45397863 0.36703104 0.22433622 0.6977836 -0.18745959 0.36488292 -0.26428667 0.04349289 -0.3115994 0.03966029 -1.2053281 0.27802888 0.2180755 0.9750205 0.6166789 -0.43059278 0.52561074 -1.2032499 -0.17283528 -0.4185358 0.099371046 0.39900762 0.66631037 -0.0037714383 0.050488234 -0.19219756 -0.097921625 0.55378866 -0.5129098 0.14343739 0.3216176 0.21783794 0.11668364 -0.57668984 0.30658665 1.0849493 -0.6719367 -0.19231738 0.5337359 -0.107586294 -0.38113406
288 -0.013662161 0.69798464 0.24911731 -0.41764155 -1.0458317 -0.83534235 0.65670264 0.16862674 -0.13201363 -0.33706397 0.77132434 -0.40294227 1.1262661 -0.31723443 -0.2449052 0.3563759 -0.08180158 -0.40914 0.26295868 0.6143911 0.25195485 -0.5746362 0.28122273 0.2697426 -0.08572295 0.4892147 0.25781456 -0.3697788 -0.4176112 -0.48128405 1.0315691 -0.3347264 -0.93866074 -0.3573337 0.4709073 -0.96186125 0.32245764 -0.3486087 -0.040217713 -0.19668302 -0.32265797 0.57318985 0.31604376 -0.7057533 -0.00043329556 0.6736718 0.19366324 -0.24653858 0.3501179 -0.08756885 0.116818175 0.15940808 -0.122369684 -0.040572915 0.44416302 -1.3435832 0.390705 -0.8680909 0.55641425 0.15951064 0.27865338 0.6806248 0.10358546 0.17771083
1930 -0.13641371 0.1519556 0.28705263 -1.0135883 -0.12643266 -0.5338514 0.25431934 0.084388986 0.7305062 0.57939035 1.2174585 -0.3519062 -0.039986197 -0.5730078 -0.52710986 -0.15878236 0.14387503 -0.51403815 0.6541385 0.3964939 0.49625424 0.8133915 0.35619962 -0.6852472 0.5741887 -0.057649445 0.9222184 -0.6928867 0.2756471 0.40018967 1.1725165 0.61791706 0.29535833 -0.050131157 0.16896407 0.2723349 0.03459743 -0.19104728 -0.42543355 -0.3818095 -0.86396945 1.0354036 0.28403926 -0.97230405 0.23161156 0.17888752 -1.4475552 -0.26985666 0.1358433 -0.84496903 0.340622 -0.010190623 -0.81028104 0.44664982 -0.11703794 -0.26300865 -0.36479777 0.056636713 0.8649657 -0.77511483 0.5583179 0.29170838 0.23484102 0.26101798
673 -0.17916226 0.7829328 0.5918481 -1.0913947 -0.61713773 -0.49284786 0.39950144 0.19105956 0.014037843 -0.4730727 0.29910952 0.21773198 -0.23271793 0.14645262 1.0733366 0.16487104 -0.24477991 -0.3475076 0.232752 1.1929809 0.2730185 -0.45296732 -0.6460351 -0.7313691 -0.0389034 0.12810947 -0.96840024 -0.4975174 -0.17610891 0.15411483 0.44227308 0.076172546 1.0064042 -1.6872498 -0.09216347 0.35074937 0.68223995 0.2647567 0.27677572 -0.3898157 0.24088219 0.711374 0.634753 -0.71309876 1.0481071 0.6842572 -0.5222693 0.4492969 0.3709311 0.21709697 -0.20389476 -0.21744671 -0.6827364 0.076407485 0.11344523 -0.8168668 -0.38477567 0.4985896 0.3680505 -0.27967903 -0.018074017 0.5776539 -0.739408 -0.15206099
138 0.009652471 0.8423766 0.18000194 -1.1761621 -0.88076544 -0.8117097 0.3404788 -0.2846391 -0.30652592 0.5666841 -0.07407366 -0.47368535 0.4519327 -0.90662724 0.6618522 0.7220639 0.14306597 -0.49971792 -0.21117838 0.7130694 0.2340737 -0.18056129 -0.07962192 0.12405628 0.39762107 -0.6474272 0.51062536 -0.13847396 1.7751893 0.3022351 0.7659363 -0.3095022 0.2374626 -0.72599596 0.36124504 0.08180888 0.70681256 -0.8167573 0.29265156 -0.13795173 -0.31137192 -0.008344037 0.689681 -0.3288805 -0.5401151 -0.01920309 0.24836566 -1.0748645 0.46675128 -0.5901404 0.11905384 0.35817042 -0.8722943 0.16997822 0.03281469 -0.18911824 -0.36200452 0.19113085 0.91689575 -0.36749846 0.26878428 -0.27419403 -0.120332696 0.60885316
438 -0.30525187 -0.3835742 -0.62125283 -0.89910847 -0.2251273 -0.95175976 0.43476543 0.13919216 1.0322446 0.16026904 0.42989165 -0.69452894 1.1310292 -0.7445433 -0.3734371 0.47520325 0.56029487 -0.61464345 0.5299634 -0.030254927 0.7800771 -0.2166363 -0.65172553 -0.6504327 0.38859725 -0.047654897 -0.39728078 -0.1961644 0.9286946 0.43074647 0.37658197 -0.09880075 0.21569978 -1.0074693 0.81294304 0.2828757 0.90874237 -0.21999349 -0.044357937 -0.2631695 -0.11154476 -0.40049997 0.5048833 -1.0118979 0.108909726 -0.14138004 -0.39157218 0.3739367 1.0427965 0.9994842 -0.026078658 0.18014815 -0.1457231 -0.1691964 0.18427108 -0.46975195 0.3716778 -0.3827996 0.43436036 -0.5775592 -0.13207194 0.30171663 -0.42326063 -0.0044749416
183 -0.3253489 0.60421175 0.06129533 -0.4729716 -0.9304296 -0.11840312 -0.18437262 -0.04766372 -0.75918883 0.19316275 0.3128644 -0.018964216 0.32808277 -0.7265229 0.5753472 -0.25709018 0.24997786 -0.8514459 0.16743925 -0.79923177 0.94916403 -0.19017577 0.9119699 -0.035960507 0.18656676 -0.27587906 0.3886563 -0.53295434 0.26549926 0.33770752 0.5612566 0.06433279 0.39996478 -0.9642458 0.73290807 -0.26212817 0.39457804 0.07991212 -0.42540658 -0.29809263 -0.6272763 -0.3599818 -0.9360165 -0.7963221 0.4373187 1.1195066 -0.68354887 -0.06978091 -0.06128676 -0.62355167 -0.07557285 0.19184123 0.748414 -0.071778536 0.22679219 -0.5089345 0.3989475 0.23885317 -0.38565755 -0.050495975 0.06373263 0.70011723 -0.31902826 0.38205057
625 -0.025776634 0.47278976 0.634011 -1.9239953 0.088428445 -0.7476169 -0.18454985 -0.63092756 0.06561754 -0.2658741 0.116716735 0.4386595 -0.12253246 0.046868913 0.46923125 0.032300506 0.2818128 -0.3673937 0.8853219 1.1495379 0.53939694 -0.82878757 0.5949752 0.35123345 0.6037845 -0.065781176 -0.022894114 -0.12823734 0.77219915 0.7930973 -0.20744234 0.36339265 -0.06558792 -0.954791 0.18024035 -0.009065136 0.9623039 -0.27433845 -0.34550667 -0.40867916 -0.24832554 0.14927031 0.80555266 -0.9143521 0.073515825 0.20659597 -0.411544 -0.24519548 -0.14396693 0.571623 0.17910355 -0.7250117 0.043884885 0.104881175 0.39781785 0.2953694 -0.91995174 0.51271623 0.5655984 -0.46047768 0.5034328 -0.07154671 0.5833458 0.32340446
794 -0.3731344 1.2309184 0.4803327 -0.39570823 -0.04714314 0.038578697 0.32139918 -0.27920526 0.35720748 0.5370124 0.43776408 0.4172074 -0.014613423 0.028493885 -0.25757656 -0.20975666 0.73274475 -0.0030998113 0.6865773 -0.576626 0.6629074 -0.03576299 -0.9867438 -0.29105 0.5894438 -0.09514258 -0.18111816 -0.019690964 0.89541584 -0.2856841 0.9651712 -0.38605618 -0.07531177 -1.1934829 0.3492804 0.08031332 0.5527961 -0.3442622 -0.24335517 0.50670296 -0.29770738 0.8164654 0.43598616 -0.1375982 -0.1413349 0.21394882 -1.1939263 -0.25230747 0.008062039 -0.49758703 -0.03536224 -0.2700575 0.5973513 -0.44169292 0.7073484 -0.53006136 0.27197465 -0.023382345 0.31168 -0.13451652 -0.43779105 0.27741247 -0.0846289 0.3696137
1681 0.3877274 0.12635957 0.46081972 -0.4748784 -0.60390514 -0.68901604 1.3451321 -0.07126334 0.3238169 -0.009284937 0.37415507 0.25241205 0.15567763 0.19372724 0.20576736 0.2739377 0.02259505 -0.39086074 0.64302534 0.10643707 0.048827905 -0.45772722 0.2784769 0.28015882 0.34940702 0.41004553 0.32776377 -1.0276237 0.96230686 -0.46687472 0.9235848 0.11049461 -0.10638885 -0.3974341 0.8481555 -0.44123864 0.91410255 -0.96510255 -0.2864178 0.3211285 0.61234564 -0.3974887 -0.11571326 -0.20770468 1.016639 1.1440042 -0.21550715 -0.3739617 0.2406494 -0.560849 -0.56460226 -0.8132122 -0.13906597 0.043126374 -0.30763042 -0.9867898 -0.19132537 -0.3234087 0.61315644 0.2916342 -0.19034971 0.48386657 -0.39682454 -0.12900342
379 0.33774722 1.3072661 0.34796807 -0.92955613 -0.08825575 -0.56686205 -0.0778695 0.22843698 0.06409931 0.4190936 0.16935061 -0.26545352 -0.061956953 0.03910457 -0.26889202 -0.08806709 0.14034958 -0.005596427 0.6507416 -0.08439866 0.05293864 -0.3203535 -1.1188909 -0.52719444 0.5972823 0.1589851 0.3296006 0.29135743 0.49012837 -0.15351671 0.36194223 -0.30334023 -0.21695694 -0.98866105 0.19241531 -0.5228557 0.85748154 -0.10946519 0.14578499 0.6041511 -0.55577016 0.7804568 -0.16849266 -0.18251003 -0.17106295 -0.12641749 -1.4876277 -0.20745698 0.23271896 -0.5989585 -0.0041374182 -0.25518316 0.6649148 -0.19157842 0.13267072 -0.36105633 -0.24567473 0.50220114 0.7028101 -0.014077539 -0.56887245 0.31526133 -0.106783666 -0.03471279
1083 -0.3909339 0.704485 0.20878991 -0.48953015 -0.046372376 0.26902914 0.17797954 0.46537384 0.2758477 -0.35375935 0.07844476 0.97662234 0.495122 -0.47620422 -0.32116064 0.31271845 -0.42085704 -0.98530126 0.4675958 -1.0836118 0.4051774 0.48086405 0.06905306 0.16084604 0.44001627 0.33592477 0.41790307 -0.35856947 0.7343278 0.4713627 0.7404698 -0.52644956 0.1429033 -1.5644813 0.75964266 0.15255025 0.3473995 -0.26932895 -0.7205335 -0.19718216 -0.6768476 0.22645685 0.32678205 -0.7642681 1.0226303 0.25254163 -0.26606697 -0.4380428 0.030064056 0.43780464 -0.06314551 -0.078641966 0.16570857 -0.07873093 0.45783356 -0.0928351 0.3360867 0.17653938 -0.069221124 0.19640188 0.106755525 -0.40114936 -0.45445722 0.50316846
481 -0.67969537 0.93300927 0.38036028 -0.23466107 -0.42528635 -0.95838404 0.0028754307 -0.45210996 0.89356613 0.69791 1.1583787 0.8076934 -0.52839035 0.0087547 -0.15481997 -0.05381745 0.6938182 0.10431702 -0.09543118 0.36078134 0.47564304 0.3253197 -0.5836358 -0.9046646 0.7187753 -0.49508744 0.13041297 -0.16656332 0.37879598 -0.2516586 0.63027585 -0.09256597 0.55730003 -0.2936301 0.7351724 -0.16710994 0.169037 -0.1647829 -0.272691 0.108063 -0.6523183 0.771056 0.65296423 -0.37931374 -0.34254122 0.2709064 -1.3796247 -0.62053055 -0.17653765 -0.33677635 0.11914605 -0.10995298 0.092172146 -0.12061881 0.14609419 -0.552091 0.3230246 0.12125154 0.69279146 -0.23979273 -0.56000763 0.3288016 -0.103445 0.1927254
244 -0.009484545 0.5883483 0.5438313 -0.35504788 -1.1203786 -1.3604635 0.8589112 0.5734571 0.08138278 -0.22331382 0.57215375 -0.17121074 0.2718863 -0.053875707 -0.38486478 0.20099747 -0.2015679 -0.01857232 0.91257244 0.34266847 0.83629924 -0.3428786 0.18910983 0.42585388 0.0073523307 -0.118627794 0.8964408 -0.5145209 -0.23792857 -0.9155255 0.67290676 -0.027029675 -0.1563398 -0.4626128 0.5955049 -0.7934466 0.48162466 -0.6339894 -0.121110864 -0.5297544 0.5876009 -0.1826933 0.22876468 -0.6595534 -0.017735437 0.37636214 -0.5539264 -0.3980316 0.34722298 0.626947 0.21746972 0.055407815 -0.2035906 0.18476516 0.76068324 -0.7167046 0.2802274 -0.44009298 1.0374291 0.46409458 -0.09047264 0.6816555 -0.5481326 0.097868115
1015 -0.4600949 0.29907385 0.30671555 -1.1165411 -1.3705063 -0.64821 -0.13012254 -0.24718526 0.47822943 0.30450982 -0.65294963 -0.37564006 0.654933 -0.37823918 -0.08713973 1.5715952 -0.068937674 -0.19788115 0.2368665 0.20817566 0.5331543 -0.50823104 -0.07108855 -0.15397853 0.24122103 -0.60897785 0.7931658 0.14325818 1.5111513 -0.29709968 0.45739004 -0.27183238 0.4280186 -1.503104 0.67360014 -0.6506508 0.37713614 -0.58770305 -0.01965776 -0.060411114 -0.22731541 0.43482703 0.32772675 -0.7209027 -0.026689414 -0.15950388 0.032059655 -0.52235013 0.09895747 -0.3255 -0.028863803 0.36567506 -0.8266589 0.053483814 -0.28275692 -0.23753056 -0.9423666 -0.03724148 1.2032326 0.3280084 -0.21373948 0.11956945 -0.06897879 0.10246488
2164 0.0030404855 0.29107752 -0.010678355 -0.68604004 0.20114803 -1.2411915 0.8379379 -0.28682315 -0.40745804 -0.65354145 0.61683244 -0.8564846 -0.36346856 0.07239184 0.14105299 0.5798134 -0.14919057 -0.72072756 0.37547234 -0.1839043 0.11601891 0.5417932 0.33679953 -0.6921076 0.5590908 -0.4173157 0.37700388 0.1454726 0.30966052 -0.41878635 0.29809198 -0.25100526 0.69041896 -1.177784 1.0671055 -0.44099674 0.3764733 0.6358447 -0.65471745 1.2252145 -0.9202118 -0.41719526 0.76556593 0.2053137 0.006593657 0.6851177 0.41901913 0.11769291 -0.14522903 -0.68873936 -0.09622079 -0.45831984 -0.27625647 -0.5895016 0.2772617 -0.34005165 -0.17044811 0.23180088 0.050267093 -0.48303404 -0.07364984 0.27691334 -0.55632937 0.117744565
859 -0.28387356 0.36185095 -0.107317805 -0.5860206 -0.20674326 -1.243124 0.38255987 0.31356332 -0.022777274 -0.02393694 0.35954225 0.2821308 0.29514366 0.08881143 -0.12942195 0.30030948 0.44603008 0.002980052 0.8415647 0.19125046 -0.57702035 -0.6454657 0.36025164 0.103515975 -0.27184555 1.1817961 -0.34622034 -0.47072822 0.11595923 -0.22114025 0.2689425 -0.03706742 -0.4627657 -0.6855211 1.3152615 0.23037928 0.21826391 -0.46828815 -0.29184946 -0.38209417 -0.6914284 0.25499868 0.24058439 -0.9292864 -0.23370384 1.0455865 -0.17727041 -0.45351747 -0.07483981 0.21857966 1.1894276 0.45172924 0.009139584 0.057203516 0.0143523365 -0.9299306 -0.24618438 -0.2803632 -0.073408835 -0.39252064 -0.09881664 -0.30879936 -0.17044848 0.5000605
884 -0.37246227 -0.42434296 -0.34195274 0.19881064 -0.21537916 -0.66582894 -0.033189017 0.3973662 0.25509223 0.19445233 0.40486854 -0.78400904 0.87853014 -0.5739392 -0.17200105 -0.41608402 1.1253827 -0.57590616 0.43096963 0.25843585 0.53791356 -0.1320849 -0.16585726 -0.34350613 0.42249927 -0.7892791 -0.47626713 0.7075326 0.62300193 0.08118459 -0.13641766 -0.012835327 0.45253044 -0.99638546 1.3935856 -0.17559074 1.085228 -0.3176027 -0.9580463 -0.45201012 -0.3359307 0.062662974 0.38728273 -1.2347971 0.7101557 -0.15357827 -0.6408479 0.14528693 0.6547423 0.24311462 0.016825099 -0.5327825 -0.03939201 0.37906155 -0.1371347 -0.54408914 -0.30168286 0.04247678 0.6647288 -0.3916921 -0.35206917 -0.00027241503 0.10552324 -0.10634618
879 -0.5085422 0.1930321 0.30807328 -0.61899 -0.52903354 -0.6657832 0.5345341 0.9672373 0.17187154 0.25576437 0.3197175 -0.1709016 0.06783128 -0.33277157 0.9848057 0.36733636 0.10819657 -0.3318879 0.18453726 0.2759765 0.81598955 0.35772988 -1.0593994 0.20568918 0.6653392 0.31327513 0.6264298 -0.1527308 0.7446881 -0.46171588 -0.19340265 0.13388248 0.08847112 -1.0118544 -0.0049579255 -0.18249162 0.43525374 -0.32131547 -1.0481727 -0.3467651 0.11042302 0.24605171 0.7403475 -0.5684403 0.5097156 1.4068004 -0.29589748 -0.123256676 -0.07844029 0.5946606 0.48855457 -0.4183483 0.1667577 -0.4500109 0.20620863 0.47815397 -0.37014216 0.38878343 0.45383227 -0.38204253 -0.22806945 -0.974702 -0.49171004 -0.82252485
1179 -0.19897386 0.3489421 0.64342076 -1.6832535 -0.21453074 -0.5862368 -0.16468011 -0.6008181 0.13475735 -0.50171757 0.45164335 0.49133876 -0.12156596 0.08008857 0.87105745 0.009628999 0.16185078 -0.8408677 1.1522576 1.4101617 0.7510052 -0.5490497 0.42599678 0.52507037 0.4199342 0.24876086 -0.017328912 -0.27749664 0.41718206 0.4609003 0.20591038 -0.06827167 0.09165009 -1.1441978 0.33561355 -0.16163969 1.0043439 -0.0753656 -0.2381514 -0.21121371 -0.02061368 0.14509712 0.70481443 -0.7026834 -0.23203866 -0.07440651 -0.58159316 -0.69265044 0.12878203 0.6086288 -0.24290887 -0.40221298 -0.044282045 -0.23240085 0.039915588 0.06804113 -0.661358 0.5412536 0.22611168 -0.55810994 0.750755 -0.020484943 0.012927543 0.48926884
1032 -0.34785712 0.27907184 0.41278553 -0.88535774 -1.3140221 -0.55213 0.14260028 -0.07863468 0.078967705 0.62096167 -0.65839416 -0.30894414 0.82449603 -0.30327204 -0.16288275 1.8252894 -0.18426362 -0.3827402 -0.11573918 -0.055445693 0.30884036 -0.69920945 0.20828897 -0.2083042 0.20907839 -0.40226004 0.5756513 0.025146836 1.4068608 0.03626199 0.41672394 -0.21953963 0.3749098 -1.7073716 0.28258032 -0.8875821 0.5109691 -0.3609283 -0.059618216 -0.05848019 -0.057757895 0.51156735 0.54244167 -0.74352866 0.10751992 -0.0035532461 0.024433734 -0.2086915 0.20876382 -0.3149316 -0.014377324 0.12756146 -0.68705726 -0.0070415772 0.023857195 -0.16988015 -1.0787556 -0.059571467 1.4402963 0.36703742 -0.21428345 0.37308925 0.13839586 0.1811127
1141 -1.0483478 0.60237175 -0.040663637 -0.5254173 -0.03180253 -0.22878394 0.28043032 -0.61737627 0.3255104 0.334452 0.16734228 -0.095640175 -0.056390345 -0.157828 0.0024629447 -0.4361942 -0.123952165 -0.75864434 -0.16133453 -0.16327313 0.89348155 -0.074721396 0.21201114 0.31321818 0.060595788 0.0047313944 -0.5233991 0.0668139 0.7961587 0.31737942 1.1536134 0.17031936 0.5270842 -0.92307204 0.26816252 -0.6413661 0.5610507 -0.48947254 -0.007854493 -0.93091214 -0.5836771 -0.10226852 0.19112201 -0.012604293 -0.54342467 1.5171434 -0.6148763 0.66963285 -0.38811725 -0.27947184 -0.56803554 -0.6414387 0.6120631 0.3154224 0.06248781 -0.450192 0.09671888 0.3446336 0.27348933 -0.17673942 -0.41936564 0.63131857 0.05709061 0.563916
121 -0.36483565 0.8380588 0.26809517 0.32757965 0.14683986 -1.100655 -0.064049974 -0.08834252 -0.5102481 0.87372893 0.5119335 -0.3531008 1.0890462 -0.56135255 -0.6101882 -0.060032733 0.46324018 -1.0388298 0.84569037 0.25294685 0.29321498 -0.2532852 -0.11324197 0.11982326 0.14296606 0.6123312 -0.1517736 0.06927839 -0.19927055 -0.32164794 -0.0761669 0.18595715 0.14639959 -1.172916 -0.23893426 0.030564299 0.6074085 -0.07888771 -0.52823603 -0.67851883 -0.36995944 -0.3097957 0.1984893 -0.4162441 0.6213003 0.6198373 -0.0031118637 -0.5781513 0.724645 0.43287915 0.29701677 -1.0572071 0.36925057 -0.2758996 0.33667865 -0.610369 -1.1669785 -0.16295156 0.22271402 -1.0529753 0.025487682 0.13402574 0.38024035 -0.20632915
697 -0.6135712 1.0744877 0.20607926 -0.8280589 -0.3411531 0.3571255 0.050315227 0.2639521 0.28964674 0.46672043 0.68677014 0.5225488 -0.04411439 -0.2612069 0.011629516 -0.14659695 0.45207402 -0.12901296 0.4368648 -0.62451863 0.7848645 -0.02999045 -0.5458251 0.06256251 0.46077257 -0.53856844 -0.20805503 -0.24374564 0.6240928 -0.24873374 1.4648755 -0.53312385 0.25171426 -1.8098954 0.42273015 -0.13136548 0.37484002 0.05152396 -0.13683009 0.3993998 -0.53086376 0.79893005 -0.09664215 -0.22530782 -0.012814747 0.16248004 -0.77103984 -0.5734039 0.080632195 0.31874284 -0.088343054 -0.3256164 0.5206641 -0.6473705 0.6091874 -0.65386176 -0.01818582 0.3552839 -0.056573447 0.015603 -0.08060071 0.20037062 -0.17829204 0.6495743
829 0.0770898 0.065296985 0.83214086 -1.8407545 -0.020851241 -0.59434235 -0.23229529 -0.5927844 0.13375108 -0.28858122 0.24593353 0.13785438 0.045466624 -0.29608697 0.8422289 -0.065905 -0.10959725 -0.5641065 0.7936717 1.0867947 0.75949955 -0.6999668 0.5158023 0.7572894 0.3785012 0.25193104 0.23541541 -0.39377555 0.5343254 0.47967404 0.020622209 0.17812122 0.003630901 -1.1090317 0.28624555 -0.26979914 0.7324912 -0.61758846 -0.31782806 -0.26667082 -0.29981083 0.29032362 0.64882517 -0.8871298 -0.38075772 0.07711433 -0.54338247 -0.3655299 0.58281964 0.71293277 -0.24449171 -0.38981965 -0.15149711 -0.24567628 0.23496333 0.13547342 -0.7638245 0.70150274 0.43968514 -0.74042827 0.510206 -0.031581454 0.21955676 0.28672862
1747 -0.60396796 0.1869136 0.55987626 -1.0000768 -0.5381943 -0.9631373 1.0504763 -0.4606006 -0.80239904 0.010624112 0.58568823 -1.0238439 -0.042159677 0.25683334 0.033432882 -0.27913973 -0.5430236 -0.41079608 0.31113365 0.063004404 0.058010593 -0.024772357 0.2978502 -0.262848 0.5619505 -0.20580052 0.2362022 0.5813915 -0.035322383 -0.08431176 0.08622719 0.13915385 0.42090857 -1.5260724 0.45396268 -0.124845535 0.4786711 0.5591439 -0.41862762 0.14573093 -0.86025316 -0.15942736 0.5631128 -0.26390174 0.31907183 -0.12436216 0.15130158 0.56275916 -0.33129582 -0.6314 -0.073086716 -0.2168132 0.027950177 -0.62628996 0.2881019 -0.3543734 0.29786307 0.43543288 0.6102473 -0.37988234 -0.3537474 -0.2497198 -1.1361258 -0.005663116
58 -0.14856245 -0.05016032 0.4886503 -0.1017953 0.59233934 -1.0645757 0.094008416 0.39686963 -0.27702078 -0.62511533 0.97074604 -0.13898377 0.21615277 -0.070269026 0.27159142 0.103631 0.8026433 -0.8134929 -0.2020839 -0.24073137 0.31052262 -1.0810558 0.086307466 -0.14084415 1.0714208 0.16150044 0.5913019 0.03443431 0.45560488 0.7056252 0.51239794 -0.2669578 0.1750907 -0.9543603 -0.078101754 -0.2653682 0.0263766 -0.14793868 0.440787 -0.056206163 -0.0009158516 0.31904572 0.34271672 0.2318346 0.96671045 0.50365144 0.43029603 -0.64076954 -0.3421543 -0.6232415 0.49954227 0.09101336 0.42910042 0.72105575 0.2964136 -0.30030754 -0.18452334 -0.267307 0.3905085 -1.100778 0.1414146 0.25552982 0.22713798 0.3632354
292 0.11799982 -0.07643063 -0.038047984 -0.11304935 -0.19319294 -0.586574 1.2409682 -0.118151136 -0.3999166 -0.48892745 0.2785856 1.1427292 0.40328053 0.05008215 0.24489008 -0.06577982 0.21596865 -0.40405104 -0.23125222 -0.21069337 -0.21308018 -0.82490176 -0.43821308 0.23561135 0.31762654 0.5518399 0.5851717 -0.5298593 0.69954836 0.6023654 0.06302302 0.6352873 -0.4941913 -0.67336035 0.39859986 -0.6339468 0.53855866 -0.3504515 -0.34459707 -0.7607282 -0.6514311 0.4685958 -0.06942496 -0.45507982 0.8212863 0.63306665 0.14000863 -0.705312 0.04429008 -0.3248501 0.13326336 0.022011515 0.1003371 0.14009245 -0.61938715 -1.1241357 0.12038234 -0.0058390554 0.51978546 0.49342164 0.04127019 -0.36453405 -0.5353565 0.25105295
1562 -0.5642208 0.44480038 0.5161121 -0.410503 -0.48396137 -1.5130146 0.85946584 0.36519653 -0.22908822 0.19971266 0.17693484 -0.29572037 1.242304 0.17226441 -0.16565382 0.40124542 0.20897797 -1.2251564 -0.53286326 0.6049084 0.32465142 -0.14572911 0.15662606 0.13044831 0.46430868 0.40661538 0.13191946 -0.9741733 -0.42288068 0.3976565 0.28853095 -0.050360844 -0.2559029 -0.60322917 0.38107646 -0.6284677 0.13813694 0.34370518 -0.17760721 0.27170154 0.21987127 0.82313293 0.35352078 -0.67394435 0.12971066 0.42542937 0.017131848 -0.2713303 0.42749083 0.03711922 0.62679696 -0.37226596 0.719166 0.41622618 0.2839293 -1.2982198 -0.3660734 0.40849152 -0.25820613 -0.805031 -0.2966544 -0.0921417 0.51904464 -0.56209344
290 -0.12272938 -0.20425954 -0.11481286 -0.6959092 -0.017173247 -0.5245844 1.3106289 0.65221936 -0.11481789 -0.6159611 0.7595047 0.59895617 0.43354207 0.041009627 1.0733941 0.18630832 -0.022894364 -0.5581158 0.23756745 0.34470662 0.22821636 -0.67851824 -0.5521786 -0.082154036 -0.1291879 0.84790087 0.85851556 0.33330676 0.34425774 0.21052888 0.9641333 0.93541723 -0.42017174 -0.9327144 1.2155262 -0.852912 0.71609265 -0.083338104 -0.07570069 -0.68918663 -0.49483055 0.54557157 -0.36475807 -0.44942078 0.14978889 0.05908047 -0.28704563 -0.52433366 0.07340232 -0.16531573 0.3747953 -0.36190695 -0.18522467 0.27136475 -0.18057518 -0.95673776 0.08007388 -0.16642143 0.27213028 0.6136828 -0.1686447 -0.16519223 0.18356247 0.23385763
42 -0.8614632 -0.39525858 -0.6102541 -0.65702397 -0.07138357 -0.8444258 0.28258216 0.7430898 0.20099792 -0.4044859 0.32572716 -0.16311638 0.48306963 0.1589887 -0.04013924 -0.44374302 0.45694596 -0.23288526 -0.046642922 0.15141165 0.11278866 -0.57411355 -0.13096254 -0.017817032 0.7447623 -0.68553585 0.04991083 0.25374678 0.53835505 0.2760191 0.82394063 -0.23519482 0.37363183 -1.0630589 1.0137036 -0.6547618 1.082351 -0.61127126 -1.6468667 -0.23490252 0.7082583 0.621422 0.38313803 -0.691637 0.49584126 -0.3074069 -0.42587912 -0.05832977 0.2801008 -0.42014277 0.046878275 0.2939994 0.61453694 0.5594961 0.290766 0.07215761 -0.673065 0.45248446 0.31656387 -0.5551921 -0.033817522 0.32031715 0.17077814 0.17640759
1026 0.65322125 -0.1729791 -0.31494942 -0.6537305 -0.27473578 -0.7170784 0.89958197 0.5604059 -0.36820447 -0.50222033 0.54571784 -0.30352032 -0.10953471 -0.5033641 0.39857322 0.41524938 0.40125236 -0.33414978 0.37443894 -0.20060726 0.35972568 0.62505066 -1.2001705 0.43275914 0.72297835 0.047980756 0.13757186 -1.3664585 0.918164 -0.6082032 0.43869463 0.7380006 0.08126019 -0.59532934 0.5046337 -0.08214726 0.9889083 -0.44145328 -0.3100258 -0.891409 0.14067842 -0.17147692 0.28691825 -0.44140851 0.6873735 0.9737419 -0.13151817 -0.85648525 0.0056592636 -0.4685022 -0.2840964 -0.48724735 -0.30061364 -0.27441323 -0.36659288 -0.41201502 0.1635898 0.4814601 0.70371616 0.43152943 -0.31916744 0.030968092 -0.61289895 0.029956618
1334 0.06464822 0.24653503 0.44615006 -1.2831306 -0.7815686 -0.2474147 0.2966078 -0.33980796 -0.60065216 0.044480007 0.19897297 0.5026946 -0.27825794 -0.5894129 0.5304599 0.17616071 0.28459975 -1.0578822 -0.5080052 -0.031577077 0.72507674 0.044100158 0.23665155 0.34811717 0.4996433 0.17710343 0.16442196 -0.2483397 0.7389414 -0.05799972 0.50223255 0.59944755 0.95144033 -0.91744024 0.33382934 -0.5910418 0.06452882 -0.13999945 0.11004895 -0.16077414 -1.1242287 -0.4150381 -0.6492413 -0.7832169 0.1190371 1.5172997 -0.598252 0.14864804 -0.043074075 -0.40193668 0.5894876 -0.043843634 0.47885776 0.06063566 0.12113449 0.01983392 0.19596298 -0.20952572 -0.18869595 -0.06503817 -0.06132924 0.99350125 -0.023092082 -0.022815265
597 0.14919454 0.56724507 0.11706373 -0.25207722 -0.13453043 -1.3216437 0.9675987 0.25734767 0.22171195 -0.0985585 0.53387356 -0.09035208 0.63708425 -0.8499616 -0.04065146 0.28860945 0.09892084 -0.5095917 0.0584309 0.16392456 0.15880248 -0.55529463 0.58758444 0.28712812 -0.5934461 0.6605875 0.27489737 0.040931378 0.07222473 -0.19283056 -0.10505966 -0.35568342 -0.33041802 -0.56302077 0.5407242 -0.71937895 0.37912375 -0.28480172 0.30410838 -0.6712403 -0.56406873 1.0044785 0.68091774 -0.4839534 0.33115473 0.530026 -0.1380956 -0.30747518 0.3193382 0.10672203 1.2513859 0.4766527 0.66559875 -0.5048238 0.14089456 -0.25163352 -0.4245153 -0.086436234 -0.064435996 0.3108775 -0.17437021 0.6633793 -0.2474588 0.7247731
1090 0.10794141 0.65962213 0.43830994 -0.08019282 -0.021715809 -1.1744636 0.82750124 0.21296006 0.5537626 -0.16849282 0.59753364 0.44468224 0.6380888 -0.6633314 0.23272827 -0.18231249 -0.13253635 -0.26775622 -0.31147915 0.16438447 0.14049864 -0.4425714 0.3178968 0.13981593 -0.5544213 0.87070507 0.11241056 -0.1872463 0.3219014 -0.15666907 -0.122224174 0.15941927 -0.66279835 -0.7480136 0.93863404 -0.76442343 0.21288548 0.05306895 -0.12389176 -0.65336114 -0.52028406 0.83974296 0.5256465 -0.65064174 0.5054456 0.25687206 -0.2856214 -0.046626367 -0.6063924 -0.20104171 0.8877094 0.24228476 -0.24844377 -0.2800518 -0.17894642 -0.3985189 -0.16013351 0.08876764 0.3604367 0.10068973 0.25128308 0.7053979 -0.32416275 0.48774555
